83.97690940188478 1229.9862652074787 -29.770376811151696
-133.15758439288885 2323.1646982366465 95.95988119071667
2448.8912277393006 9293.599662206954 315.9767553078375
2859.350736373493 3569.9838718041474 179.0617356823086
-53.64801529163432 -990.0335795090401 21.481284657771432
869.9901238312668 -2787.701290762022 -216.05160451156073
-514.6122628327406 -4366.103482298753 -219.38411537644214
-1314.3412755872691 -1889.441210140293 -104.93452271194096
46.28583482063505 1531.5260069477529 -15.72349793370478
-1236.3426233968894 2107.030341488883 222.66019509512742
136.11436951338158 2736.2571822539358 158.31062360005106
362.65383466743384 1767.3731106945231 147.59611267887985
-453.5540941773481 -1890.3059828658677 54.21115454914182
633.8196538801913 324.9183429323966 -69.61704085546654
-191.99076814753954 -1412.3107969569664 -59.927259880534955
194.83311019045084 -1552.7847433772122 -6.130922454249775
69.94377486240893 -2556.2441940286276 -90.46391042747612
-2560.0320446149044 -10201.901464437924 -370.73582573774536
-2477.1009684676874 -6282.833335650113 -430.2855248126198
116.66950662194995 2323.164698237069 -94.08444891920588
-2455.9440286353206 9293.599662207966 -315.19127721682264
-2856.8121341423307 3569.9838718065403 -179.34685299784832
-830.0340584887996 -2787.7012907619214 211.46394178230955
492.39526295274294 -4366.103482298427 221.86083928918669
1309.7655631933828 -1889.441210141276 105.49255540003941
1202.3609490475842 2107.0303414882205 -218.4301026544715
-193.2691770522721 2736.257182253228 -151.79565066290746
-341.0458622944914 1767.3731106949676 -150.06681454792752
-137.37652414158228 324.91834293293346 13.730345425848848
141.7420496070148 -1412.3107969567657 65.38879779853919
-80.97473117065528 -2556.244194030128 91.75676578770519
2559.4725216064066 -10201.901464439425 370.79458023697174
2477.0836821793837 -6282.833335652798 430.2897947382039
-138.24618099688144 773.2414090865732 11.70119094797879
-93.04261300917301 1107.78886247905 47.69746852381674
670.4637298522354 3530.9835917927476 154.37398767517055
595.736464269339 2647.698470564978 197.68119429274975
75.70661165513991 1107.7888624803916 -45.73190288382078
-670.2429691263651 3530.9835917937417 -154.4043578811881
-595.652973434445 2647.6984705656423 -197.68879339185602
-9.111655752890586 66.42978877922825 1.1446928344361882
-8.41516906572869 75.08026539004877 4.236123786614357
-18.81183842505006 122.48277355115745 11.50775264422777
-17.39394920306807 124.31046890077766 9.205863553794702
-1.256358637595217 75.08026538974018 -3.1710584430637563
20.16758159767821 122.48277355103646 -11.663227320992704
17.03319167490729 124.31046890117072 -9.163942552973433
-1.64625468102329 8.011788371871125 0.14252084119368708
1.3490861309641244 1.118916217327038 -0.6075833368901663
9.787946517077128 74.37647377037631 5.0561456300868155
9.276170735484772 53.09507639203698 2.678003163386082
-2.0441313506628713 1.1189162172689988 0.670712624564698
-8.043462765562692 74.37647377031912 -5.250822196864249
-10.336587327278151 53.09507639164396 -2.558005510537281
0.14879816125456116 0.7889761701726916 -0.01616985185473599
0.5165205272207185 -10.837165972458259 -0.9585376186936493
-0.9789602303465538 25.34344811422224 3.265266317943527
-0.018111524910362782 6.976109504758078 -1.3269993492413694
-0.3797117553160655 -10.837165972403163 0.9427549612413056
1.9204747852852098 25.343448114165437 -3.3696754809596756
-1.1450743650350217 6.976109504936847 1.4586243504613405
0.011825712369876413 1.0916804954887855 -0.0013153896909817492
0.15634780918085664 -2.728488803776807 -0.4267371639493607
-1.0871409647010335 16.50141715504106 2.665180072544003
0.2697663205346408 3.0413969197338213 -1.6433336833668468
-0.25450872328735846 -2.7284888037812562 0.4377655893045914
1.609386998618678 16.501417155088284 -2.7236504004468496
-0.9446030059187279 3.041396919715688 1.7202404867983534
0.007200767917003661 -0.018273960087840026 -0.0008257420170899756
0.16726539172869498 -2.163604250209674 -0.3744909258173011
-0.7787993609452762 7.25181825665632 1.858330239365429
0.4747976462959459 1.0080927536159232 -1.3992388271531782
-0.23032599927618388 -2.163604250184742 0.3815392180813364
1.1261407061169804 7.251818256486039 -1.8975064015017002
-0.8566529744122943 1.008092753650004 1.4429209071983282
0.005692187413229489 0.7690044376262787 -0.000618655932933599
0.05756289082861174 0.0011053472238640766 -0.14238118354782653
-0.8661783685249106 6.336994958396416 1.8366073250663255
0.61873962915765 4.911443123830532 -1.5416861963144808
-0.08918353588538651 0.0011053468149852372 0.14600694275202508
1.1416210148506225 6.336994958934364 -1.8676494812287714
-0.9860399165951333 4.91144312372507 1.584095584416268
0.00878308478486409 -1.516859708356523 -0.0010750106508424693
0.015420405489701998 -1.5396665044419715 -0.02070490371304819
-0.925270465582359 3.3530959733700434 1.7741245527744123
0.8295077902856817 4.205390800414292 -1.7151623632877309
-0.010057538847644881 -1.5396665052256209 0.019950284029948136
1.1340607891938297 3.353095974403332 -1.7977863473787372
-1.1267788303157338 4.205390799823715 1.7495288756228682
-0.009792195286720264 4.106253956593933 0.0013114651098140957
-0.04457636186307885 4.9280708964083315 0.0462212061775589
-1.0810956660654882 12.18580294076344 1.853526890079928
0.6962601825656833 17.86739220502255 -1.4054913412166932
0.012163421196141418 4.928070898701994 -0.042054915726058295
1.1660695406160657 12.185802938664523 -1.862193164250812
-0.9873817958500771 17.867392205821076 1.4404246138243912
-0.007269226408792083 2.8228467504656254 0.0009447482811695818
0.0403506547302838 -0.799332423248333 -0.06433141118588967
-1.5805178038014722 38.00683067231325 2.4543942464863537
2.4522069521177023 -61.212481762581156 -3.7794790566441874
-0.04120093942572792 -0.799332426550605 0.06432895750419051
1.4628309018672891 38.00683067597396 -2.4375669895992904
-2.2536266916115286 -61.212481764000486 3.751202517195253
255.71442135089708 8087.568201088887 -60.313656579904524
445.31593229477295 3727.550571920261 65.55375714450979
4526.3626736078095 17820.891485509026 747.3416231595249
4135.472047922895 7415.2533831865 519.0758903860843
1583.0551217035713 -5527.694946450181 -215.46243696749673
1955.1805453333425 -4922.576804440407 -454.9810566018817
-626.7633914121978 -10719.181653717682 -696.7996000594104
-2357.0780081277 -4537.479407921177 -367.06480789534714
-2730.507479514568 8035.2017294558045 394.5778942725119
-3384.1113013580775 4102.247702383605 643.0611529907812
-930.4306572575888 6883.602915705809 571.3040355433662
661.7636125631824 3514.731924787726 376.065819626394
1233.5948961911347 -5189.181534022857 -203.25973311206485
1834.8250798221013 190.01413207892656 -253.44316720347354
481.61992826202174 -2970.443473423017 -225.49684034294853
-551.3078450806846 -10746.24261439293 109.95989087275011
-1022.545945806492 -5112.733956813664 -44.90448214183015
-4727.3057075609795 -17672.623793177943 -728.91852828437
-3255.099907642964 -11150.577978582236 -930.9239873169582
-484.1146224786916 3727.550571921206 -60.73600923145908
-4530.166853166757 17820.891485510652 -747.1125244330942
-4135.23729694875 7415.253383190874 -518.9850544980924
-1909.0780566809983 -4922.576804440283 449.67781482230635
609.8726395191709 -10719.181653717013 698.2060816807328
2381.3705667323284 -4537.4794079230205 363.23783740068546
3699.8078047289705 4102.247702382442 -691.6880959683768
975.5897055043253 6883.602915704424 -580.8728742053559
-682.8898418327631 3514.731924788522 -371.8484978926137
-1970.645397195737 190.01413207986667 299.38239145689056
-585.3945428587712 -2970.443473422565 238.23716738386636
1004.8242481485906 -5112.733956816526 47.07072811496623
4726.879777239498 -17672.62379318043 728.9577412093447
3256.2572400417494 -11150.57797858697 930.7508637185938
131.65920988364797 4343.638712733042 -30.477176911293363
292.25738181479966 2488.3990915562667 50.79466115669931
1304.5141941792765 5925.102726351436 281.0654229284837
759.3279928954043 4497.724074562629 396.4671677091084
-307.34550088978483 2488.3990915587306 -49.349483258707885
-1303.6475269509574 5925.102726353184 -281.1803551742345
-758.7213563462818 4497.724074563686 -396.55413429083666
-7.940353290255255 197.0057506086486 0.9102754608064693
2.381892683825765 207.9048117970028 6.660754047429974
-22.083408208029834 198.1152720960923 19.835065777716835
-18.444522133349246 186.15489940145304 14.976333651834134
-5.893671498696934 207.90481179639607 -6.60546982422077
23.590102026923187 198.11527209583596 -19.992255234907006
18.733450955376686 186.15489940224765 -15.037994963111226
1.8105745754273377 53.64345235954497 -0.39243178653493543
8.924406300938633 13.760756475254253 -1.9464542991378155
17.62252355465323 118.11809364780879 9.857173232236107
14.57853830165905 86.57679729371965 4.628763102968312
-7.5693042743030645 13.760756475186813 1.7002226081258323
-16.49062675275591 118.11809364772388 -9.939423565520755
-14.493682946058009 86.5767972929849 -4.6945828578180615
0.12171969264270305 -0.6607484197516801 -0.010068916724190205
0.35105092863071935 -19.989187767372247 -1.8719021029397072
-0.9091205288773906 40.341542278091914 6.7565940412395395
2.2669130514332787 14.16461962366642 -3.196328070420906
-0.2097155736814271 -19.989187767272874 1.8565739500081035
1.319085014431245 40.341542277989916 -6.769603219272873
-1.7289272642440296 14.164619623977822 3.0581063223597034
-0.0010188498836406989 1.7937501612138242 0.0007364749838372664
0.005974641414708303 -4.4063894934469845 -0.8689094106588284
-0.27237179365520725 26.94623141076943 5.423819881446835
1.0270981487503406 7.044228160193892 -3.570558741750728
-0.03686309559556178 -4.406389493441062 0.8685300030798604
0.35618806238007705 26.946231410844103 -5.409564016574318
-0.3946221867032413 7.044228160152596 3.442759098757916
-0.006478820540914018 -0.0670247417947091 0.0013222956303673872
-0.03392150690022499 -3.526599140026357 -0.7524243889357352
0.0967423012408163 11.424047827584202 3.758422149997826
0.25789081911121337 2.7836879825317826 -2.9067971593994537
0.02166082097679255 -3.526599139974039 0.7510093603749881
-0.18794466915602384 11.424047827234904 -3.7272357577128616
0.17694770267920495 2.7836879826588725 2.8230745902129315
0.01050814623839325 1.2761284527610082 -0.0012598261442103797
0.0034734423672697396 0.0855650651083365 -0.2906366361527172
0.3708715797340883 10.033956623271202 3.666168113200592
0.059850541834885744 9.417802448348462 -3.1607302780932764
0.036133610252417465 0.08556506436469029 0.2831751806821105
-0.4323221786711573 10.033956624274836 -3.643011766126098
0.5723593811042849 9.417802448105197 3.048592181592015
-0.04800664324195153 -2.6230897523015346 0.0075367090623961385
-0.052076969661928145 -2.6262508930154453 -0.032967543568872014
0.5668370484999726 5.119628205424785 3.503562620957869
-0.30081937993088625 8.029218540830788 -3.441418208976659
-0.030311701984274787 -2.6262508942036136 0.045404154100747204
-0.6845393542300953 5.11962820712555 -3.4754956885751507
0.8362287269659316 8.02921853981092 3.3471384421940744
0.11464493382956142 7.015999671756104 -0.017425054153599146
0.1673575025570472 8.44770819714115 0.0629116005654002
1.0606986350113952 20.441642120863296 3.57044793922935
0.02524016115496102 31.174310270651873 -2.8657851846260276
0.11766079380641054 8.447708201462266 -0.10664626318030135
-0.5873398843967385 20.44164211728511 -3.6359702113020442
1.190473975474684 31.174310271848604 2.671389550346973
0.0697065823231691 4.850370170635634 -0.01066489598388919
-0.0608572414727568 -1.335014210755653 -0.11997035387259011
2.1928737735753003 64.86098421318839 4.575529199695053
-3.5253981459687065 -104.39741307278085 -7.021227841089943
0.00816199731658982 -1.3350142162864307 0.12770127047099394
-0.23722988005885884 64.86098421903206 -4.87026125901577
0.2903106296860453 -104.39741307494077 7.50896168291299
-1121.849144465953 3329.73511915203 178.51663185927973
-157.2689600499279 3355.306195708174 239.2899160331077
-649.8296873993454 5246.223418582164 568.2973575536228
1545.2486910747816 -1473.8438832526072 -34.505950414757464
1033.4683531232765 -4747.500692660037 -154.09616980605156
1337.3234700336607 -3022.6846590584637 -327.234546044783
1589.6037949861764 -8819.591148555497 -878.8148549352351
-2921.4516052062763 3139.5518758615144 513.5432107819177
-1051.4920058923933 8051.829061488276 158.4071723547881
-1604.702588463584 2148.552795863372 302.5455853417518
-1517.080184174926 10367.587756909536 975.9184754030233
1044.3486112227 -643.1431059342907 -167.585283871276
-932.8819176973926 -4272.548380308777 115.65444261911126
999.1713333641526 -86.8362028476558 -128.76213432952827
216.94711529049596 -4158.301829912507 -337.9904956376916
1783.0573353382445 -4978.875276050854 -268.01542592337046
348.3778010531364 -4579.241056759803 -314.8316890628566
895.0612749594563 -4972.313696547388 -585.235970427736
1659.8338505093348 -3618.0084462566174 -738.4252759953379
109.01878554531831 3355.3061957081472 -233.27211205617755
624.5445929442427 5246.223418582288 -564.8036789603652
-1536.97750900471 -1473.843883251809 33.388231460246125
-1188.9609379802862 -3022.684659058445 306.3781042909072
-1666.986807912812 -8819.591148554822 889.3688883109164
2916.602348329543 3139.5518758606577 -513.1069935063366
1609.810417537169 2148.552795862785 -305.7075835465445
1355.1192616316469 10367.58775690889 -954.6528079467374
-984.7650669919981 -643.1431059337311 159.80311977358542
497.9024581271587 -86.83620284706942 -69.18594185120425
-412.38489460408874 -4158.301829912531 364.8376653214514
-383.770710369794 -4579.241056759912 319.5795494542234
-897.7792476385856 -4972.313696547206 585.6361588420774
-1659.3348450859808 -3618.0084462566874 738.3439631799965
-752.6616873784485 2312.4516061959594 109.49575304695962
-360.3569273004748 2087.3075844554205 153.47358216403035
-593.2505772018311 2163.850595904499 256.9511364242596
-1161.7561402076465 2304.131235396891 384.1906902930714
300.6978966489646 2087.3075844553 -145.31411231927
593.0934217489904 2163.850595904226 -256.89199087488504
1162.450472371053 2304.1312353962794 -384.29718727256085
-23.71787226500917 150.00843984620928 3.119774363600744
-52.93579765233204 138.98684971713814 11.721128067234313
-86.85310569027064 183.28967653695426 23.049533544363044
-79.33014577900306 168.76960246177595 20.440286671275956
17.068158395185627 138.98684971755003 -6.722860424927433
91.0407996496813 183.28967653707247 -23.600594384289888
78.47007962945727 168.76960246191572 -20.334298479299125
-8.846671972120093 28.16759436050995 1.2912114972739754
1.285192001225484 12.027414502050064 0.503470568157569
-20.135748567057846 45.74587545872092 6.953557934206553
-19.983725966818835 47.954783774701646 6.515741465241339
-4.9212499476980875 12.02741450175264 0.03430086994461483
26.192150613303532 45.74587545872045 -7.780524393285636
16.735707594267883 47.95478377462478 -6.08380617631544
0.5440583485901606 -1.9301031345669695 -0.07447567512396149
4.8117374428225625 -9.941280647838791 -1.195041462661598
-10.34504052448207 9.766772244102244 2.544537450605983
1.1671008004927719 10.818857797611182 -0.253006015068485
-4.340502683148346 -9.941280647789528 1.1301434409282587
13.587052412996037 9.766772244070907 -2.9859880285908083
-4.663283254278053 10.818857797713857 0.7178241119382786
0.04013874692615993 0.6515297624955666 -0.005492305517207996
1.3927374159863364 -1.0933147336537057 -0.3476027712443519
-8.89764164498682 7.244702246125996 2.200793315547609
4.14855577114235 5.080096223911651 -1.0195369385483963
-1.7089615451951068 -1.0933147336367768 0.3899993237661357
10.580986469367323 7.244702246170784 -2.426688070414646
-6.043139155801421 5.080096223840677 1.26805765644668
0.019569623486396324 -0.048597936032878916 -0.002541393458878721
1.2545072858330337 -0.912801560653238 -0.3106249101038941
-6.10963621848365 2.599671060291745 1.5147255759811438
4.2714408953643614 1.8415587070416324 -1.0642463019805912
-1.4591966608786604 -0.9128015606829335 0.33812328839969236
7.170121439253334 2.5996710601445225 -1.6557703025773223
-5.307999010032004 1.8415587071585333 1.1992447559254114
0.02206069231676099 0.30838797377926963 -0.0030360621851672456
0.46560371123820393 0.04723952108301817 -0.115930183432588
-6.192402983930195 2.292498686030259 1.5300512440617497
4.965708952825519 3.286193851107653 -1.2359970866049794
-0.5499537211711274 0.04723952074547547 0.12688013472097232
7.036324921565822 2.2924986865181802 -1.6423107477846237
-5.880422472571056 3.2861938509296746 1.3530867225132701
0.009345200912001904 -0.6502026342008574 -0.0008630449790693646
0.06713089932787086 -0.6279116653727289 -0.016579645716808738
-6.148991472566631 1.0807472631381678 1.510819864603803
5.825249144584921 2.6939151311892755 -1.438899921265648
-0.08160050571762188 -0.6279116656108583 0.01917073623266482
6.760767349348002 1.0807472636630122 -1.5915697443233388
-6.5555978786768225 2.693915130789358 1.5320939996345984
0.012783380545107168 1.6641986728070581 -0.002623006299876831
-0.16054835569276013 2.02816034042989 0.03776662744152669
-6.569316513020919 4.846242387765765 1.6013685302700573
4.935854171848171 8.032078344362393 -1.215389647312555
0.1670075861070565 2.028160342703217 -0.04090930987006085
7.016275680909443 4.8462423858182735 -1.6648259335440567
-5.388003807651369 8.032078345048289 1.2659838345217063
0.0037509677698026275 1.3033783562792098 -0.0010644963975409698
0.226613597508469 -0.20210501731052158 -0.05544117448502491
-8.825015403904139 15.960965490224305 2.1336655349817795
13.579794940307663 -25.129031562598897 -3.283409787259537
-0.24913107304850773 -0.20210501932618646 0.058858360613210994
9.19895892105103 15.960965492027245 -2.1992663703515
-14.185239734410807 -25.12903156318635 3.390122343322226
-378.8013782153076 696.910500145621 44.738178745649634
-197.2687786251782 506.5752018444249 20.506024089037936
237.28569118507517 -398.9739255217021 -59.33877465784975
627.3737497829043 -47.31323676544794 -44.6251624953973
705.7899036547703 -802.0357642523893 -95.43822860482948
498.0367654587074 -415.14099193882635 -71.64412605738895
-1148.3968308683013 1158.531188565944 213.2188098285257
-1179.9985234750675 818.902725468007 208.9113357834984
-410.2589886734477 1055.3901292760206 67.33432502117437
-171.59314410333994 457.81567063234104 28.455236817462705
2415.256522299229 -1969.556337548569 -393.6018879547754
344.84409762040923 -7.093648716099187 -56.200365120708646
-561.574155712694 -652.0068517469069 66.76083877672151
183.16231288755614 -405.8060579145973 -29.067266537586622
-1901.8601514557486 1321.507299917013 293.4456830005323
349.64811303836757 -529.3956138232223 -44.04256449016215
284.6215088312599 -541.5962741426256 -35.68465313045185
735.2365821805053 -490.6437268995755 -122.39526341876902
1461.7585563339894 -2176.4861841854004 -351.77782277444294
156.5753873893731 506.5752018442321 -15.109828592546977
-244.03314387411461 -398.9739255212039 60.301739624629406
-624.2424405492776 -47.31323676453958 44.20308985772663
-480.6554734855447 -415.14099193870686 68.5195939998341
1121.5670412134739 1158.5311885658489 -209.49256548937203
1172.2855126215402 818.9027254677629 -208.07476012320785
104.44737953190804 457.81567063204244 -21.976459441099703
-2495.82468868589 -1969.5563375484194 403.9514788083087
-314.1117711995761 -7.093648715926672 52.28312338078536
557.6092061856538 -405.80605791431657 -67.48074033209788
1831.8760469707759 1321.5072999168012 -283.4619268478594
-297.3362684264383 -541.5962741430018 37.514542044175826
-735.0773911757003 -490.64372690020645 122.39069281877491
-1461.9880963710968 -2176.486184186787 351.79739474820025
-152.70153036814915 193.5019474315957 20.51308605863477
-245.25297905310717 253.98218923664314 35.863795298913665
-606.1558693319859 501.89283896334325 104.27184330404205
-964.7311419993414 1201.6269276785174 199.52057025949583
227.30112222844778 253.98218923716854 -33.30243595754383
607.4794077445043 501.89283896377464 -104.43788055412794
964.5701308581531 1201.626927679086 -199.50737066003532
-6.243285997662208 9.55215217390998 0.9506162789159751
-29.97097310821307 14.367515592609859 4.772440159037225
-81.60111355072972 84.03763814668719 14.712823225051373
-71.88356733042642 72.05165756388854 12.347881281316582
21.680814126894216 14.367515592591495 -3.575401578410434
83.72177619765125 84.03763814661154 -14.999982829203057
71.20572135264419 72.05165756388826 -12.262632969425995
-1.4525574533940526 2.933796034076271 0.19881293754929605
4.435100552732431 -7.3988096160630645 -0.9224118238298978
-21.504200431462202 25.812006312677298 4.120453084069502
-18.296208983068166 23.1307988854908 3.440521515703514
-4.5541864740297795 -7.398809616176917 0.9434196770827276
23.54199997967912 25.812006312702483 -4.403561972276067
16.821223112872264 23.13079888540184 -3.245760995640098
0.1999886577768971 1.8820654250549849 -0.027483842031104724
4.941162609545271 -5.962299395825982 -0.9046219011453449
-14.340365140422994 16.711952543653325 2.726763407525959
1.7947977647306828 3.8282682780711297 -0.5448934026795145
-4.833037886496768 -5.962299395796798 0.8882808053777375
15.512460205533793 16.71195254362512 -2.8869080332661254
-3.3648131053275185 3.8282682781236765 0.7499207049153288
0.012833745393725083 0.6434503769783622 -0.0017464174079965217
1.999841956283812 -1.7429626433694931 -0.3688578428368486
-12.582658121754227 10.398080506110631 2.316708160882857
6.055399654100413 1.7332760334370128 -1.2013694642136392
-2.135086499107891 -1.7429626433833343 0.3870005389635487
13.30109772402182 10.398080506099632 -2.4126038101845872
-7.003577598544154 1.7332760334697976 1.3225500990168293
0.010606175901387151 -0.0104007947545547 -0.0013519720596808992
1.8819861030447302 -1.362669749059976 -0.33978344494737023
-9.209414742778465 4.554879171643903 1.6688443955308605
6.483039699213294 0.656587846952194 -1.1971165879781147
-1.9687877370744857 -1.3626697490460888 0.3513846935940638
9.694351654431607 4.554879171674201 -1.7324549687814974
-7.029398035970469 0.6565878468822245 1.2663203785455848
0.007601989942291246 0.494958600573699 -0.0010841299006660572
0.7096478108504911 0.01484595946867199 -0.12851558674668323
-9.61392393124427 3.9940751708757394 1.7150316601022844
7.756002326722363 3.2136357971402103 -1.4004307656487673
-0.7549078966637741 0.014845959434581264 0.1342232540598734
10.001014482565623 3.994075170882853 -1.765850825110175
-8.289331023694192 3.2136357971881075 1.4664523372243232
0.013630664305007372 -0.9974744804259045 -0.001456912268657039
0.1246081419936823 -1.010519628689829 -0.021039422650059404
-9.758239109173141 2.1000190801114877 1.7182716760950765
9.277691643490552 2.7450801234149544 -1.642622520190285
-0.11493840186932097 -1.0105196289761487 0.02035463112621392
10.055129064865278 2.1000190804168457 -1.7567163550068636
-9.711797667039072 2.7450801232679294 1.6961854370292644
-0.01671693147228406 2.7018470110965724 0.001384823652983882
-0.290152733769298 3.2413519108091418 0.047927671842313745
-10.597728824351092 7.93368550390796 1.8446785254134455
7.825762970035095 11.711575325609127 -1.3796828357303388
0.2371282368812319 3.2413519109626776 -0.042968953851847486
10.705470958067519 7.9336855036228 -1.8623526825194907
-8.269220722891554 11.711575325804265 1.4295636030474836
-0.012274339379006375 1.8173003833667702 0.001117763601878565
0.38064418452324156 -0.554024794235218 -0.06557104571243687
-14.400016972681602 24.820098494932257 2.4834447595046236
22.2512718995691 -40.12944460374775 -3.8333224940537147
-0.3809018209341507 -0.5540247950949768 0.06598002608382277
14.182647786109579 24.82009849602132 -2.468817319699896
-21.888189179120825 -40.12944460422225 3.808634600200021
2.836866915340263 378.3731165976971 -16.249175269021297
-97.7204965403292 277.57404661423465 -2.8753063470314997
-32.90317965457091 141.1506375988062 -9.047717774987225
999.3079248323455 -232.96422786184323 -115.83077656670234
167.90963145795826 -105.17166486159347 -4.760780941776909
185.1313414470018 -41.46672169744083 -8.772044616206578
-107.17346658459184 15.459573907293604 32.86167743995575
-639.9308076673129 231.84424506689248 100.48035989102112
-54.776759081065926 186.8797165138138 -3.365172638539652
113.4133844278803 -16.259934610106527 -23.61031210812663
857.4299488690788 -476.0927806542198 -140.2441346102793
165.55068693156463 -15.667261239402173 -39.389299719755144
-277.2485523959261 -208.81578541509086 40.397664017115765
-75.21884445297712 -60.36072198445462 9.200713549890263
-831.1661510241369 443.86856540236704 130.12898636519978
5.868967770219806 -404.99169167670885 6.134165157572682
72.03128662681098 -297.8219439041078 -2.4445750472895833
149.76154469212767 -168.47687256629723 -14.220209745383487
-255.75022106953443 -260.7022250868499 9.416763529280818
80.2199926159442 277.5740466141563 5.013109885264188
30.46917006006472 141.15063759898936 9.440208549656834
-998.0542975799406 -232.9642278616357 115.64925682741648
-180.38265134865895 -41.466721697393915 7.375387526649137
96.89642935727593 15.459573907245279 -31.35967524561437
635.8548561404544 231.844245066841 -99.93265806985838
-151.4264035401457 -16.25993461019732 28.552751169060738
-892.2128322543889 -476.09278065417004 145.07450653179862
-152.13066291997615 -15.6672612393604 37.529505365616636
385.9996195684512 -60.36072198437029 -51.491089314430845
805.8890054697629 443.868565402307 -126.63728347176993
-77.30106075949703 -297.82194390418726 3.2494672364024253
-149.58613360808994 -168.47687256654595 14.211413477198464
255.60082576799343 -260.7022250871901 -9.399350975616095
-25.20334102283811 122.66467493477182 2.8681204851756457
-76.76162563541256 100.73711485764468 9.961741700074677
-164.89190851495334 106.77844533735876 21.362629651001463
-140.2691785092344 212.24441778319098 26.037692378255745
69.88248245417287 100.73711485778412 -8.88284031807351
165.54374105778203 106.77844533752545 -21.43725139155881
140.15727358197628 212.24441778334906 -26.026742885189115
-3.1648929932546754 0.8267282278493356 0.5993238055727103
-8.969297336148934 1.1827070165205775 1.5059218402858519
-26.703971777461827 16.881763403331608 3.7216623110273206
-30.22308911961098 17.540209607179246 3.967806377947736
6.18058408934329 1.1827070165118994 -1.0315212782952734
27.596425495151088 16.881763403293565 -3.843191370995017
29.914799075710917 17.540209607160232 -3.9277470567098307
-0.1597698636245456 2.2789494231834784 0.022178111251662053
2.5590061678056997 -1.2126512683978032 -0.3003959621525672
-6.346487063893242 5.995362314569381 0.7714454579802508
-3.9779913873416106 4.580343737007678 0.6868686584092852
-2.428207338683783 -1.21265126842642 0.2918217139806335
7.125617174885083 5.995362314585585 -0.8867412403770009
3.3628208666401807 4.580343736998473 -0.601085357926034
0.07436797352938002 0.5721994378217772 -0.01032787729102979
1.913474705695385 -1.4798118297977263 -0.2326322192494902
-5.853944986395433 4.403607920690643 0.6443686712553937
0.5720554565870066 1.217028657916869 0.026760927578420964
-1.8729775515845988 -1.4798118297895677 0.22533333836614144
6.305919610609916 4.4036079206815995 -0.709371855661064
-1.2311306465211764 1.2170286579247176 0.06583324382414245
0.004912396081408343 0.16162203324535113 -0.0007429176362597117
0.8298516124981216 -0.4617357810351903 -0.09424748608667165
-5.239624452902527 2.7354974820183955 0.5963014979780407
2.4346902828753323 0.6515655512627829 -0.24120151107024804
-0.8847826093967885 -0.4617357810374069 0.10191993618573587
5.530684709616119 2.7354974820154556 -0.6368747646364625
-2.8453449973942613 0.6515655512720275 0.29824065634090385
0.004660561266803461 -0.00658301400995439 -0.0006404507803587792
0.7962397672191971 -0.3626998870633288 -0.09264855905083506
-3.886521328749507 1.1748510681856579 0.4496445685491608
2.711275334716177 0.29234378846785963 -0.30476505972152557
-0.831259485861565 -0.36269988706285705 0.09752619736771131
4.088666786515455 1.1748510681942446 -0.47773161769976247
-2.951182387742036 0.2923437884501027 0.33793736938652386
0.0027275455927353253 0.13750928527390827 -0.0003819908153597377
0.29969579381551587 0.01530207811694193 -0.034732302800074805
-4.103888549434849 1.0477380343399891 0.4839417123426839
3.289322464306908 1.0164481812432846 -0.38203305107735736
-0.31971102632330684 0.01530207810822982 0.03750109701451426
4.264988317245992 1.0477380343428375 -0.506276296005735
-3.531070710684945 1.0164481812547022 0.4153760870867141
0.007321702283889233 -0.2917615097596191 -0.001003327047110895
0.055700276429825245 -0.29229508567346657 -0.006851867743220628
-4.20390764072554 0.5362521131702446 0.5036436494463217
3.9851370766031597 0.858711363812183 -0.47471589886445575
-0.048776438215743366 -0.29229508571853663 0.005910208420704473
4.330103987512539 0.5362521132242348 -0.5210948076590284
-4.182769856244891 0.8587113637832154 0.5019374333764521
-0.010971587508079627 0.783951552337412 0.0014957210254813278
-0.13115610513100237 0.9422943578235593 0.016312197144114523
-4.603248385999291 2.2541150458685766 0.5579664050259797
3.3673578689158474 3.437214058813099 -0.40479989775984754
0.0991631621509751 0.9422943578698957 -0.011942506645217758
4.6305925079895385 2.2541150458141903 -0.5618459041723225
-3.5932169506375073 3.4372140588429163 0.43577944277745784
-0.0075520267659351615 0.5204999643863493 0.001026749314138444
0.16692058367611715 -0.16464599958885834 -0.020438699625612337
-6.295702900752466 7.1543386871359305 0.7687916313373352
9.737958523926189 -11.59703140032109 -1.19029154632037
-0.16516317929410929 -0.16464599979823147 0.020198775289609852
6.136313724125045 7.154338687369681 -0.7471527599766792
-9.472961275396113 -11.59703140041244 1.1542756445360436
20.15456730969368 296.7448120290097 -2.197921042344794
26.806731760916126 121.98718769053829 -8.178822308098798
72.22602433157856 109.48795688791952 -9.897879961812329
73.98571384182597 210.0191953477279 -11.169254907980182
12.734871718744646 -102.48771011659414 -4.566249001114495
-27.728804642465057 58.58713169007396 1.8046916969189581
-97.97773377382384 -55.226196862995344 7.215852162678043
-15.161128429805755 -44.49426876090518 6.468223976347208
16.321597853649955 -12.39199971331328 1.8799061820092329
66.18613936285026 -39.00893363251691 -3.0622695079836255
121.95752285485875 72.38252514844476 -8.903857307306398
3.0500644538891324 3.518085264107759 -3.2489524810104142
-39.856077045874095 44.449527007607855 3.8209129509786623
-40.99600920644688 -8.398506702908739 2.537666203947102
-58.26268302373847 -42.352925153420856 4.7013419940507895
-34.43156567258047 -315.2122869990672 4.6809184112731606
-32.78348211755524 -214.43137448948397 9.299761696111768
-52.6827710461665 -138.06016948563882 9.83271074211981
-80.69763012988228 -234.68775402648689 10.580006930144611
-29.342740436794088 121.9871876905638 8.583447557143764
-72.15042755325499 109.48795688787638 9.895093415878977
-73.91015273417423 210.01919534776823 11.157756096232546
25.13299129404794 58.587131690062925 -1.5173572336237864
97.61353057765945 -55.22619686296039 -7.135365953359415
14.351302135812187 -44.494268760924854 -6.389976004328397
-75.1342985182937 -39.00893363250832 3.861874839263852
-125.73311606558846 72.3825251484071 9.376055340478958
-1.518367463478804 3.518085264113561 3.061868365401806
73.12646501607149 -8.398506702915352 -6.923232033324075
57.5970062886032 -42.35292515340264 -4.446864020299072
32.537426297119616 -214.43137448950503 -9.241270865829037
52.7840239582815 -138.06016948557564 -9.845697262612685
80.65165670564788 -234.68775402651704 -10.575336218097853
10.736278248928066 94.00322633601769 -1.4317084584711743
9.426117684942179 76.33890796366728 -2.507809538824998
12.028239299462546 45.00833842973162 -2.772175052140052
22.34550142646653 69.0667355644181 -2.9273616343839057
-9.467226021969191 76.3389079636692 2.5382190246898646
-11.887999861414244 45.008338429687875 2.7519241134682604
-22.386804325578037 69.06673556441339 2.9321204815623885
-0.06992627854294678 1.3611959427338005 0.017474375634066012
0.09192392029390874 2.1633901154385464 0.022278091372938735
-0.13755085536980602 1.8234005985449413 -0.019365512883073987
-0.4562992844584297 -0.33635516487395123 0.026664391557240912
0.1501551998385745 2.1633901154394732 -0.04685053217898687
0.22695857814664042 1.8234005985630923 0.004781652989560183
0.40979128401879794 -0.33635516485443584 -0.020608373986483245
0.15571377255560825 1.552401243679782 -0.02135182597009696
0.2387761384399955 1.2790856060241087 -0.044358703458255225
0.23491880346532878 0.9824364767240301 -0.06631301027174437
0.2295402647447205 0.853568015278274 -0.03285694482558251
-0.1332162243012673 1.2790856060235616 0.028942902598817006
-0.21143836321686926 0.9824364767147807 0.0609660482745344
-0.2858302676721801 0.8535680152624069 0.040773543606183384
0.003132193329495216 -0.06931033620789145 -0.0006651627307366954
0.018648764081294768 -0.05142797213880266 0.0025648012829769733
-0.08975809873685961 -0.09893736397634184 -0.01376042778328146
-0.04215353060560018 -0.12269594211737705 0.016119126810832014
-0.02143932431281366 -0.05142797213820682 -0.002393741352890334
0.11051924212329917 -0.09893736397656347 0.010000728447547774
-0.018852645910210228 -0.12269594211038747 -0.008131755247571338
0.00012360479045903433 -0.0026367248659165043 -1.99330493987269e-05
0.014244793270585088 0.006548172250220255 0.0016532565332281826
-0.09275478024051342 -0.04455524864501794 -0.009410452825919714
0.017767037995970174 -0.08595606584600622 0.011040074778535481
-0.018586834416612144 0.006548172249539869 -0.0009843639891076994
0.11583516600462733 -0.04455524864326209 0.005952790953199179
-0.0630007752597167 -0.08595606584815733 -0.005506729566693539
0.00055561732409499 0.0022683878451262456 -6.919743272862958e-05
0.016571996308969435 0.00817897539004218 0.0010241754666435417
-0.07780966017816938 -0.010527509961106194 -0.005704865709713658
0.04481998943482102 -0.052391739759632634 0.005965547101709426
-0.019296848978537066 0.008178975392228973 -0.0006117876175892474
0.09665956397733744 -0.010527509965260381 0.0031339305710795058
-0.07300785524052789 -0.052391739758277434 -0.0025886077838883992
5.1042484139242094e-05 -0.005320177784772328 -2.3810609884000928e-05
0.005704205066451574 -0.004867880477587962 0.0004682437176424335
-0.09167746101681569 -0.01632267664357952 -0.0041720842409399515
0.06307672972939792 -0.08564087664981507 0.00508996780420106
-0.008111459031688686 -0.00486788048141637 -0.0001837673485501087
0.1067090069319644 -0.016322676639018624 0.002106162272696883
-0.09488717639634178 -0.08564087664914785 -0.0015002273625812229
0.0014476796879056742 0.016630276937000376 -0.00013349567088096175
0.00242169586422937 0.015441121225071321 -7.633266518380787e-05
-0.10135886499979017 -0.002048462788192129 -0.002709120721803819
0.08919439523855395 -0.06990445779305325 0.003591563489610718
-0.00043721844868726173 0.015441121192543582 -8.096534143896981e-05
0.1144194898961288 -0.002048462747436939 0.0010151856571909113
-0.1156437204432466 -0.06990445781304165 -0.0006231980665228252
-0.002877132657370376 -0.04227398263250804 0.00023553263227859428
-0.006971341219664719 -0.05152400477971862 0.0003288024889395538
-0.12434624892280015 -0.10384780478456045 -0.0009769248220934167
0.07020494662523416 -0.20084747150062934 0.0030274256813867064
-0.0006038437374269167 -0.051524004712339366 0.00031736916397141204
0.11887374520269481 -0.10384780484268968 0.0010290654737604907
-0.11052705733395897 -0.20084747148149032 0.0008784003191968093
-0.0018449526467759737 -0.025816715502490793 0.0001567820215678751
0.005045402820618917 0.01010955596476112 -2.9904164435187086e-05
-0.19071731178631723 -0.3691653943230444 0.0012593235893849847
0.2983237244196557 0.608511882465033 -0.002344337398852076
-0.004040670250404773 0.010109555860258296 -3.296646688583542e-05
0.14396438708363302 -0.36916539422375383 0.002423248005232331
-0.22100576150327245 0.6085118824325858 -0.0037455458244264536
-12.334078607040514 130.1918176083125 -1.1207761473385234
-23.991196325813235 9.747266898613137 -11.077849598956487
-40.45226147693593 99.42390578180759 -12.433423020728151
249.09063601712228 252.92744703216363 -28.165341118410318
-54.08336430407619 12.614114977645361 5.973921271664815
-31.205898819649605 -24.125576354179074 8.92149520074185
204.76489884995968 82.7396472917129 -8.17086106666556
-120.77213033120745 -62.722948432246625 10.34970100191338
52.102711221455365 27.419459369549717 -4.924314217448307
37.774447769520926 49.13156977906152 -4.233880941597218
-588.1727690022691 -161.1152963610869 52.26370861783416
72.56751703436709 -3.991738740979177 -3.81513492894962
49.055487109474754 -35.43561779161791 -8.016966224002697
-77.25805573681343 -50.562817377333275 7.627142222642036
417.5497738895154 105.23360229770708 -42.546830704055694
5.933399543831598 -177.98224328488834 3.555202283613157
57.24658225439703 -7.006464517330589 8.169236755976112
40.67295966329016 -156.5739052943401 10.068568676048116
-377.91671633945873 -276.7037255745938 41.137622216289515
28.607614631205156 9.747266898630519 10.549268058307732
41.2096966303103 99.42390578177509 12.306167742351807
-249.4198835398813 252.92744703221803 28.215895606313946
28.266099473056773 -24.125576354189736 -8.34078276537425
-201.77981516032875 82.7396472917376 7.720218308951029
121.32697172131229 -62.72294843226113 -10.436736335782921
-34.339351738694404 49.131569779072684 3.628484815170233
596.0732234608133 -161.11529636111507 -53.441166063774226
-75.542607698151 -3.9917387409757774 4.25909312592214
2.843561097434304 -50.562817377340956 3.1375804668825347
-409.34351485109886 105.23360229772136 41.39795772511955
-55.56119768877091 -7.00646451735391 -8.399420853509403
-40.684722412663945 -156.57390529429293 -10.072998553506329
377.92824861893575 -276.7037255746591 -41.13868682074978
6.062995641175723 54.79037586508223 -2.309103655227656
-12.885949818909502 -0.28417598892200174 -3.082763974892421
5.551642524767716 51.765454945957366 -4.5015049992013
150.84626917979526 81.75593092249515 -16.02016350970648
15.02897287177607 -0.2841759889067803 2.7520977919603418
-5.703242399397921 51.76545494592936 4.515438081322352
-150.83623260034588 81.75593092250821 16.020162178221717
1.064586503161986 -0.4640136529674678 -0.1528101866295034
0.13645384186961107 0.9083225076366518 -0.08319333875814448
6.244835182159146 0.903770395128198 -0.5946353420205492
3.5556100829305195 -0.17330387742184777 -0.3856195154718415
0.7621992147828992 0.908322507630515 -0.08141960682175577
-6.488526737088589 0.9037703951391004 0.6266777178006507
-3.4880232543483722 -0.1733038773977742 0.3767849837163244
0.0411413974352983 0.687862996008507 -0.02444896688882461
-1.623700670162447 0.31558270142420347 0.08552429763440832
2.577633351336521 0.9753113047986292 -0.27124291188121535
1.5880802065502713 1.3324290154864964 -0.2073453039769306
1.5927194926209338 0.31558270142502365 -0.09142865554209573
-2.8033382964801055 0.9753113047921922 0.3058994075395649
-1.4352209887519776 1.3324290154652667 0.18500466530263876
-0.021129847218540176 0.0053098631826563065 0.003172283123807745
-0.7778333892857353 -0.03959331425817584 0.07044450876298711
3.062702754342093 0.04974085437014107 -0.2549306159100866
-1.1092533912566684 0.09903417372132899 0.06776477451580688
0.7632192099426667 -0.03959331425757715 -0.06807439775301428
-3.187264664939366 0.04974085436934841 0.27400665305515765
1.2664418851514399 0.09903417372923715 -0.09147253066479472
-0.0013118094747480759 0.002938300896109946 0.00021879968933516007
-0.39568595428793824 -0.009026202570791711 0.03404824003037321
2.4779877133152213 0.045477471775908246 -0.21331594769150705
-1.4840691574018994 0.018070661461495736 0.116854187547868
0.4100589304672352 -0.00902620257137863 -0.036138029613151386
-2.5528366301639136 0.04547747177610268 0.22434227447744126
1.5756960802367532 0.01807066146144157 -0.13063932181756358
-0.0010386612969458548 0.00015649362706612904 0.00015152279797995435
-0.35820617595678367 -0.007308459935720542 0.03152985311499802
1.7733236974343685 0.027622045984650855 -0.15534956188317942
-1.3178655156650758 -0.0026135646249017194 0.11259628505841324
0.3672517496822595 -0.007308459932978574 -0.03286313303853222
-1.8224387853211312 0.027622045982588415 0.16261784432303916
1.369972189335936 -0.0026135646266809125 -0.12041250789334189
-0.000882009957707634 0.0027858189842834657 0.00012635528822054097
-0.13651593828714612 -0.0006088790071271676 0.01197828237019506
1.793562418208581 0.02807249739126988 -0.16023046351920103
-1.4943308616626672 0.003890437916762673 0.13146805197304468
0.1408027965050331 -0.0006088790087339924 -0.01262272424404837
-1.8328430149230304 0.028072497392026042 0.1660236997372572
1.5431808552219235 0.00389043792043198 -0.1388695048647457
-0.0009436464363820471 -0.004472356263648713 0.0001564517164121939
-0.021143324483429725 -0.005143978336138468 0.0019907227401989957
1.7734614266251034 0.019922073651424156 -0.1611994596602779
-1.7091073352705326 -0.0003383884200220525 0.15431295268463355
0.020936044887854915 -0.005143978369663249 -0.001928896405209183
-1.8028994744239355 0.019922073690360392 0.16555913426262797
1.7486525889368347 -0.00033838843909809394 -0.16030318901913773
0.0006239193960303022 0.013573797675977694 -0.00013535743777130538
0.04731655981373931 0.015714387638686027 -0.004553606466288922
1.8836779431072155 0.04667871296849595 -0.1736323920254322
-1.4228265633767943 0.04572078669755885 0.12966110526022867
-0.04458632869820538 0.01571438767265037 0.004044868764603076
-1.8992974130507747 0.04667871293153348 0.17573887971237062
1.4568188490351015 0.04572078671509999 -0.13509470605187068
0.0005937276308904792 0.008314628802387213 -0.0001123155128973217
-0.06637817651485031 -0.0036193587951457466 0.006189805855409022
2.5164757683007117 0.12528051144122077 -0.23429040467181914
-3.881686061042949 -0.20501324547966507 0.3618168571972485
0.0669045074332745 -0.00361935887781353 -0.00624453076863189
-2.5128312723131376 0.1252805115384617 0.2330161292661268
3.87527478096571 -0.2050132455191246 -0.35964206495518014
28.778941296252714 315.6139583728135 -7.058690983005266
2108.942224030617 2653.1857103500665 -198.13451214417395
3532.925343254581 3993.978427696266 -159.59099535214332
3496.4362717520603 3507.8972915199756 11.572783723252881
-290.354496350742 -286.4580029184041 29.360804460455885
-1308.2156288449353 -1485.6572226100182 118.17626273374584
-1045.7877012006884 -1289.0434312273244 44.37520396791278
-1060.099971718562 -892.3129776457877 -0.13704208073953897
185.60087678884167 287.8963921252604 -5.815354405965487
572.0636683548757 1080.4174636051953 -31.96697893450738
-470.3303346226843 -393.753988098199 6.835598422909033
242.77886426632017 9.867923573747504 3.286844617764848
369.0552218085889 -592.6121213777358 -63.33137877466235
-3.521512474798614 -182.9562438024168 -29.523691701035684
640.3236125655628 628.1253049067732 -9.697434887581618
-73.61988898594548 -278.7467834016742 17.007933575791323
-2189.263272151083 -2765.0942838359456 214.84221691431452
-3899.359571061448 -4232.3394270895105 189.1794164352912
-4205.5568252259145 -4026.4296740353307 -0.991945880772072
-2083.403039022932 2653.1857103503053 194.7693031066864
-3528.400705895011 3993.9784276960345 158.94292511943632
-3498.46335329683 3507.8972915209924 -11.275829721839843
1292.7875525932732 -1485.6572226100798 -116.11860419742231
1063.3027101176078 -1289.043431226893 -46.832710147724086
1064.8715213611333 -892.3129776461805 -0.73568021863271
-532.6597217557381 1080.417463605179 23.924156457400667
521.6088772931924 -393.7539880987749 -14.676191060304731
-262.3143611975966 9.867923573887623 -0.27206805028816916
-463.55330552024776 -182.9562438023924 98.7673756657321
-595.4961589613218 628.1253049070242 3.89647301304193
2198.315286082293 -2765.0942838364026 -216.03629276284752
3899.297168959876 -4232.339427089168 -189.1716625534277
4205.688216121614 -4026.429674036398 0.965067818422555
65.25254004429486 124.67483608064039 -11.308155399984768
738.6586504575874 885.5179939079696 -74.37804486457523
1284.4855609353929 1317.1296620073642 -66.25906981087016
1393.1044262674457 1275.718466861461 -6.275534740612381
-726.3673933084701 885.5179939082943 72.66867146301806
-1285.3191769391653 1317.1296620071166 66.36937444945706
-1393.0168873837742 1275.7184668616308 6.2595241377317645
5.602276823607747 22.75194262285252 -0.7698289455654835
20.517440925275395 13.6338777628127 -2.0104843281345333
35.87036692284125 23.187458179368196 -1.7529518303342586
20.75941653599054 13.60461067365844 -1.802804298190495
-14.990048368328505 13.633877762731693 1.2020299571537996
-37.258067611100216 23.1874581795362 1.943269895351436
-20.333159144051756 13.604610674017074 1.7391014673993408
0.5927436619563411 3.350513475122367 -0.11061758128544683
8.245809291177713 10.056556117847077 -1.0852723075162696
25.527620694161648 23.405843488769648 -0.7434921498640205
22.821548754162613 23.24059920728989 -0.4980367522794923
-8.260463457823688 10.056556117827661 1.0711744620980315
-26.862260420687743 23.40584348866425 0.9322550874015636
-21.875777920117052 23.240599206965083 0.3589378090626368
-0.12539259668956304 -0.5547314109253341 0.017552766010692285
-2.5126974653051084 -1.6726662765220808 0.03659193643132587
5.823971248634752 1.3000887470957632 0.17628483014011412
0.2149926321149915 4.9083665217562515 -0.30236431152332316
2.431999753456462 -1.672666276500103 -0.02555672565363384
-6.576114395443037 1.3000887470716327 -0.06842017676181446
0.7875658946364692 4.908366521892349 0.151282334446566
-0.008304857010673745 0.10431998639716089 0.0012421917860443435
-0.8809816900406173 -0.10552833004785894 -0.005647515277063374
5.417191793319505 0.6476444578204651 0.03874046534777388
-2.2118732000017225 3.14818715161258 -0.14769485021487105
0.9677940901277797 -0.10552833005028511 -0.006841665412720913
-5.875301115592116 0.647644457843105 0.02780631471685559
2.813705930920448 3.148187151592901 0.05487468424893819
-0.006746731515102902 -0.058200508961520056 0.0010331070741564027
-0.8277299494163077 -0.11197331429017805 0.0017750447480372046
4.041150619489902 -0.13265287362851944 -0.00019538576094131296
-2.7417941682719666 1.6534981134366458 -0.03369440628111308
0.8830105755064601 -0.11197331426841413 -0.009790458571339294
-4.3497601495724085 -0.1326528736926011 0.046081396523934774
3.0879715567924544 1.6534981134313795 -0.02017499832757547
-0.004871685823620809 0.08820126284046292 0.0006378503997508263
-0.31183734239353583 0.12452252622887867 -4.177342221239631e-05
4.300725978647073 0.020112632676321053 -0.03358929515246068
-3.402849302395535 2.211082992584961 0.001161221856595922
0.3405235145652717 0.12452252611777215 -0.004448163605950776
-4.546868158918583 0.02011263280577106 0.07009373443519443
3.7398695622369207 2.2110829926086577 -0.05511449699429109
-0.008502981883008841 -0.3304688397467184 0.0015940954459935431
-0.05861804960084642 -0.290678804548864 0.0020041831864094145
4.439563304281185 -0.19711409822331852 -0.06223697689480188
-4.187455370052694 1.7825701253337476 0.04507720421465734
0.05274916064998247 -0.29067880509391064 -0.000545825317956248
-4.62798980175135 -0.19711409746744565 0.09068839225576879
4.461565977669091 1.7825701249064718 -0.08910575000532155
0.010240557936657556 0.7975246334303491 -0.0023331621170017045
0.13957428048876927 0.9865626849181164 -0.006414231457507737
4.887221300630647 1.829858844319079 -0.09631086877918334
-3.5639391829237472 4.145528314881136 0.04507390167537613
-0.10683213964056176 0.9865626863598481 -0.000452434877672599
-4.957347566250321 1.8298588429011922 0.10313904775804453
3.841627820713626 4.145528315449354 -0.09456934259988249
0.007547530661491954 0.5285670901291162 -0.0016110326875923555
-0.17735572260857768 -0.1562163453755583 0.00431181392081366
6.705933258883608 7.0608883944262635 -0.16361091736618502
-10.372358259131264 -11.494092488143137 0.25790195742641997
0.17766671830675582 -0.1562163470076464 -0.0039726289087170545
-6.574503876246688 7.060888396203511 0.13015307971391202
10.152554778030892 -11.494092488829653 -0.2021970022584776
3094.7291752823917 9210.675666651758 -448.64804030787735
5148.752368890932 11684.841586380591 -311.9834291638189
5805.801557635434 11727.66377350126 158.60155633480957
4784.61376875838 5150.840183997533 146.54557378572252
-1526.5314427224432 -5170.595297244353 209.68624320355403
-2188.4698281313176 -7361.759683940366 49.42414558294776
-1967.6659831723632 -5436.865115032725 -162.31842715152195
-1571.3421787765417 -2346.999788239936 -109.81207754110832
1172.4826367013204 6949.986039039869 -176.23112050140236
87.28622775200037 4620.115762049892 166.36797307167546
178.64041315821723 986.7241210438406 39.41783954038056
261.5691148507519 1452.6340015480605 143.16767931970588
507.15899322496824 -4713.890063141492 -79.03596705095373
433.2501175108666 -600.2328364040885 -115.96655074533209
436.8957791348163 503.7121409716898 23.96497432799095
-3679.4225628201175 -11212.651500222024 557.804035355571
-5616.206884728279 -11943.83081260319 367.9558193629589
-6466.343905528569 -11884.86262194628 -109.04240925030437
-5433.467048112964 -7484.577914003482 -321.8103436133703
-5152.539095499867 11684.841586380775 312.81151922252093
-5780.724961910755 11727.663773501998 -162.69089883735197
-4791.5644431237715 5150.840184000417 -145.4277817752422
2029.9913501723197 -7361.759683940143 -22.70663405818124
2034.0351992175754 -5436.865115032155 151.56804855573074
1569.349727198576 -2346.9997882410353 110.26493485075756
-144.8043261892134 4620.115762049199 -155.17299797209608
-65.81647857912795 986.7241210428101 -57.158027632010395
-301.89893809924496 1452.6340015485207 -136.8539893286233
-1479.8783511640654 -600.2328364035274 280.187950253077
-275.66870238986644 503.71214097202903 -50.015035174486194
5637.0542188443305 -11943.830812604523 -371.5320840745511
6470.623672712052 -11884.862621947213 108.33803277240224
5432.534095664276 -7484.577914006914 321.9688660837924
1239.618463448364 3990.348180584422 -192.16647330768208
1835.1382462433187 3908.033614980633 -119.4778998841171
2112.55549312409 3911.3048805796916 40.350416582155106
1749.9992575037995 2922.14735326195 142.27426674321788
-1783.8908932437428 3908.033614981914 111.03305812356308
-2109.672750652186 3911.304880580174 -40.824636148003144
-1751.2007169405372 2922.147353263002 -142.07382911730807
9.858099658332767 135.3252021524542 -1.9660500694669376
45.92834466148115 96.14286334915813 -3.5534509788347366
49.54594736818068 127.85824447010924 4.719183393125101
28.386262712687035 111.28277319783544 4.67917955501051
-6.86530796347928 96.14286334893188 -2.797743168821408
-51.61152062301366 127.8582444702154 -4.383524853462062
-28.217084995658112 111.28277319830983 -4.701051609291791
14.871716210294986 61.5932921408704 -2.3190558694707066
28.159431196643176 41.78170778120966 -3.3461299574503194
34.4557626253261 79.2578259616961 3.6519146727504768
32.2664353012962 57.204952909393995 1.1576814124309687
-21.44788955301265 41.78170778106943 2.2839198742938285
-39.77020531186433 79.25782596159304 -2.7904102831714175
-29.926032760505173 57.20495290880518 -1.5303567298656633
-0.49036874268082314 -0.919298567407154 0.07820104211064324
-2.35141956764429 -12.262907196153755 -0.7596561939875259
1.034184467276674 21.75189805536366 3.5663906585274736
4.336513527158646 11.961593356617865 -1.8883007243045091
1.9316106641967545 -12.26290719607069 0.8302154278483096
-3.882569188509569 21.751898055259907 -3.1088451888785413
-1.6725446862150755 11.961593356906532 1.4656350591839575
-0.03893276608996897 0.9616314709123002 0.006268181492506768
-0.4756777321248293 -2.402166210491781 -0.4263984142198074
2.7829527732779007 14.573956030541764 2.6608443192033415
0.45319888810241066 6.917767387942822 -1.8711186550325316
0.713055117704694 -2.402166210493433 0.3884251855173926
-4.090772840211308 14.57395603060913 -2.4524423410087643
0.8873896150756657 6.917767387906084 1.6608880093814067
-0.012136620162755362 -0.0890285782450169 0.0018932781860948376
-0.5196009540660111 -1.9412022366442923 -0.36320342270773837
2.491025558869183 5.778060703816474 1.8136453003469961
-1.3506511785692978 3.1689159270970353 -1.4206539394713948
0.6800216246922397 -1.9412022366088633 0.3376449939261783
-3.2803323005394973 5.778060703652631 -1.6886017282683885
2.050741791527167 3.1689159270823155 1.311547972896289
-0.018959116812579065 0.7592171197381339 0.0030627060821133167
-0.2013428089191513 0.17942261616258653 -0.13830478497435159
3.059769434223489 5.255245238057992 1.7363358150695627
-2.2623273168944 7.218202039566742 -1.4935331634834423
0.2573676371790279 0.17942261574562937 0.12959186730431554
-3.6856691594878805 5.255245238525508 -1.6372150778566743
2.8299374831846564 7.218202039579918 1.406479514441889
0.0021137811864103163 -1.724871649022101 -0.0005673787953140464
-0.03661367174706403 -1.6867428678956387 -0.019843919836463053
3.5191803270004463 2.4844496569632244 1.6240196839487384
-3.2683275609153237 6.024724272517571 -1.5878577616733025
0.06305944139768853 -1.686742868828579 0.015249826414659119
-3.956344019686484 2.4844496585298694 -1.5551920667012993
3.7126260819457895 6.024724271489796 1.5199666483938394
-0.031219456050198085 4.530129483421322 0.005506699358735297
0.08286346307112377 5.479025617652156 0.043094160913959415
4.045154513364768 12.678120560125897 1.6597916178607437
-3.0868211263004235 20.681639797558805 -1.260005800666914
-0.14163663194200884 5.479025622328367 -0.03239146795189175
-4.469582077591781 12.67812055611097 -1.5901520342447781
3.1929364782675598 20.681639798944634 1.2490842451913104
-0.016367935036893377 3.0883476265982797 0.002941216204463644
-0.14685572974597927 -0.8816282205332858 -0.05749663707993237
5.563853536427762 41.48118526806808 2.1734776277699748
-8.60505330383948 -66.97482383888058 -3.3460220798242295
0.17305344292303446 -0.8816282239233053 0.053097431443789735
-6.216005216282991 41.481185271280864 -2.060505742311946
9.670869481066164 -66.9748238399886 3.161264111370015
1138.2759185973475 8339.739552513456 -151.60520434037468
2141.0537148430717 6232.422255435778 -135.8671344784996
4704.859166078937 14000.201759446629 483.7300158504905
4183.670967335626 2642.079122680911 16.421738770998253
-601.4331431708451 -6189.042694480781 48.85862274677176
-1655.0759629392335 -1140.579719894493 232.26781146394677
-1403.6795045223755 -7664.289649498488 -400.21953075097827
-1948.4708544564317 114.10616527406292 78.02119827463774
620.5441617717213 12686.961892443025 -58.228500248271615
2531.9957190840983 -114.51868949909488 -316.3007735858676
-466.8018890638881 2876.067319695279 241.9249382282133
224.40353832664312 431.5358787902313 113.66316258346471
-405.4569039418246 -8303.126681191925 46.443397729889256
-1940.1866119958763 769.4890527378277 209.7526927082806
1033.276209497683 725.7788788356308 -17.513619170596087
-1111.8256848569818 -12792.59967952777 169.73641420948275
-2083.090505029971 -10318.438856752422 -49.17762021590242
-4748.964992613935 -15099.157340707754 -583.2745907125197
-3366.726531964246 -7611.644094687349 -565.7264773863715
-2161.642389155678 6232.422255435931 139.7472133897332
-4702.312393774588 14000.20175944777 -484.2993349506764
-4183.555261765633 2642.0791226838246 -16.395662809711578
1627.8829732051026 -1140.5797198943642 -226.38224807182337
1406.1226662254742 -7664.289649497677 399.52791857030144
1940.2599600736307 114.1061652727615 -76.91093686070596
-2622.5361782425775 -114.51868949996049 328.670500160367
441.28612311968465 2876.0673196940324 -238.91337658605906
-213.48062993043104 431.5358787909316 -114.98329673068648
2124.108666482125 769.4890527386448 -233.34823415535448
-1020.0990919076048 725.7788788358952 15.545625774432045
2080.625218055964 -10318.438856753934 49.41576198271637
4750.195082428948 -15099.157340709346 583.0459811760311
3366.213057112631 -7611.644094690585 565.8059486812595
311.7237558707609 5270.126960236833 -50.96144413593012
577.5031745307355 4361.424793222546 73.42868530906819
1302.2834340159473 5417.663727573734 259.5220853678302
778.1189837689243 3670.188390099408 314.7909534490437
-574.9979084052096 4361.424793224038 -74.17263365256693
-1300.7955135733487 5417.6637275746525 -259.7914034220431
-778.5905593058243 3670.1883901001243 -314.7106507274833
-4.460931749807593 272.7743765717566 0.347889003764486
5.319353953223327 250.9074118092173 8.267116600565668
-22.574265736256 241.8290863456771 22.112201728441335
-20.571551906649407 225.73961472929489 19.701402005999043
0.010462766776112678 250.9074118090156 -9.374736046426772
23.24183236098008 241.829086345644 -22.216054178326072
20.16789992464981 225.73961472981634 -19.63873755120645
3.8126964841906212 76.76833375049745 -0.6386510508289124
14.337277900937922 45.0855512849843 -1.336703578264631
13.363821481511646 100.61535791300686 8.561813667256908
15.856774455511845 85.62334035812017 4.852383514718199
-12.505906075040365 45.08555128477328 1.0097272998882378
-13.59345380288301 100.61535791297527 -8.49785452915568
-16.169681097299684 85.62334035755086 -4.817391128732342
-0.030061228935695645 -3.403716345925705 0.005805232309973214
1.4107947142993422 -16.893549622113444 -1.584058603792522
-7.035244566672208 21.342338660591345 5.308974072523824
4.874588571014792 27.226236129007052 -1.7624653514116493
-1.4454967260407576 -16.893549622012582 1.5934591690825939
6.95116711461454 21.34233866046865 -5.282373016749518
-5.20779831701932 27.22623612930456 1.7948747362914446
-0.002147042405568751 1.1747990092834053 0.0006116871967964198
0.7427979477809664 -2.406608482628554 -0.705503657268069
-4.80666409203681 15.08975408311829 4.400048898409849
3.6599950942805624 16.096168216019255 -2.5401677388746364
-0.7604104153996237 -2.406608482636572 0.70718996082557
4.889815366855122 15.08975408319265 -4.406936194625166
-3.9656425119655343 16.09616821598208 2.5757075457381364
0.004165822812441911 -0.2525022134407329 -0.0005376114467194885
0.6068462048622224 -2.0985406661425254 -0.6293457505145011
-2.998810991934027 4.862732260822056 3.1095051035330643
2.3890540590278166 7.686556595987312 -2.2969049754980775
-0.6157716443943401 -2.0985406660982404 0.6300230714890006
3.0983650688288105 4.862732260557688 -3.1202475494143465
-2.592679070553579 7.6865565960304085 2.321629009509758
-0.0017228147510252245 0.9371030227729052 0.00027816160827161886
0.21976765578333013 0.5072977730073581 -0.2387894166294735
-2.7118614067221247 4.89744574553425 3.1219104741375756
2.2938300376949847 12.803210137364081 -2.5915500721753526
-0.23767031866174942 0.507297772441921 0.2409746609687528
2.790460689896001 4.897445746309093 -3.1305427409365385
-2.549239321687044 12.803210137228056 2.623459664220179
0.01497335178014711 -2.475197891623344 -0.0019556814296895
0.0362364265809411 -2.3314892527210875 -0.03719902221219321
-2.396089885854716 1.7892148441962368 3.059772929545906
2.298059400147073 10.446050510765694 -2.9452358825010045
-0.012861699543947417 -2.331489253765543 0.03409450404529971
2.476453030781609 1.789214845649877 -3.0692041271945447
-2.5129944617427284 10.446050509918352 2.9722738137365976
-0.03303663684222101 6.300043651160858 0.004372036075357791
-0.0946159137046442 7.681504385470774 0.08336514066908306
-2.4399847143896944 16.615537990045212 3.233797617387377
1.6707782937407354 30.206110194031154 -2.432760578592495
0.010495718136483013 7.681504389202649 -0.07227523707421596
2.3331519385854826 16.615537987154404 -3.2189152805010806
-2.067326374562246 30.20611019487104 2.484258095685021
-0.02063645275183685 4.298918936377397 0.002738329976675984
0.08467828244070272 -1.1973998655045446 -0.11393668504084346
-3.312282951085294 57.24022708840212 4.314358942747394
5.1021555930637295 -92.50150625264912 -6.6531639539296545
-0.07113020981116996 -1.1973998705753988 0.11213558986146133
2.7587391001783326 57.24022709352784 -4.240706417001074
-4.187418760363329 -92.50150625443375 6.53159275576952
-294.02905817571093 5028.4406760449 110.88249913363433
397.5874403527771 -1012.8674733847491 -93.15090176744926
1127.508249373281 -2273.470669921126 -334.5056978187259
-631.4767025900921 2341.998851921927 324.63264055765154
237.94774923907678 -4789.536463015495 -64.00368099818314
102.29154820902583 1719.7179039038556 65.63914015179101
-2131.9441889174723 4077.180358797717 566.5946027080344
360.1948047094886 -965.2416239864965 -116.24786131824136
-1272.9197945932453 9165.107017146662 193.23447036713196
264.8226344975163 -1376.4554941373553 -91.44306882935304
2576.807249290806 -4984.87077496954 -682.3541820935003
-940.0798257833109 946.4456624904782 164.8103060778886
-384.53332044172146 -6615.692061383942 53.30081909544332
-430.38090325245327 1817.9388943362067 109.29202851030423
-977.4327999471221 2172.801470273713 325.7724045189114
1550.1426751395957 -7265.735624102887 -286.3046448730096
334.2003151808957 -2190.0301962876924 -145.80539785880774
179.29509051779567 -528.2318786004191 -45.576029217112136
2588.4909969752057 -4893.825926783553 -752.2333373764674
-416.8919068531111 -1012.8674733845932 95.14174706491615
-1158.1511255064397 -2273.470669920195 338.9942751178532
639.7233812955553 2341.9988519241138 -325.82926795608915
127.92802271558067 1719.7179039039695 -99.0191863555989
2047.562688932084 4077.1803587976065 -554.383250124661
-350.4558023022031 -965.2416239870349 114.81568383977383
-77.01230433166299 -1376.4554941378408 64.56289429279292
-2696.1347677192703 -4984.8707749693185 699.4844005375952
981.2947519297292 946.4456624907533 -170.7176838706813
1579.9149841399292 1817.938894336613 -274.27783726831296
758.4235572654975 2172.8014702734276 -294.24484383245783
-377.0794794635564 -2190.0301962892822 151.71411352188727
-183.99910667134557 -528.2318786018893 46.289169074060986
-2587.0719239588416 -4893.825926786832 752.0231890703124
-786.3223801228022 3076.1795677508344 129.99658551870357
-437.62888504636135 1687.4831924957082 130.19528629908538
-533.8056695660944 1142.4760056930904 140.7605989324202
-1309.4678191547262 2260.5024641858786 342.65511848844886
365.9438732471125 1687.4831924973778 -119.89442912398401
531.6813297140753 1142.476005694169 -140.4024419292486
1310.9742635505975 2260.5024641872283 -342.88138996867235
-35.211113424952515 167.39175300035592 4.7039256074090385
-63.291745460551155 175.02317917309838 14.775123102949667
-109.04551119525632 209.11752517907055 27.330625710000994
-67.27420494106472 118.21772253065059 15.61386367831693
18.540516951376485 175.0231791727396 -8.14462548706985
112.76546026022717 209.11752517889775 -27.838107430019924
67.05260769715441 118.21772253075447 -15.589455273593199
-9.879933052274193 41.537137599736866 1.6206201230964232
2.6771519614068007 7.163118538897872 -0.004560279086722393
-30.494160844217813 41.769461071697755 6.947293340770086
-15.330866784019305 43.49539938519447 4.609836395682573
-7.520718010701756 7.163118538818216 0.7902846856411014
37.167120409110886 41.76946107170215 -7.915197897123839
12.528283733529673 43.49539938493468 -4.208694911678648
0.5573254561348974 -1.0435439974614227 -0.0817260090619874
8.013294548897948 -12.614566600438106 -1.645830244764986
-26.277617126239203 22.751296967796552 5.160888811551373
10.92264512869019 14.445950441318692 -1.7669079242745087
-7.371641866828734 -12.614566600386308 1.5539995907480675
29.631516563705556 22.751296967741606 -5.649852987639884
-13.85895594225455 14.445950441437542 2.191386494130552
0.043078655636078364 1.03345945446587 -0.006352674915240081
3.4913455414582106 -2.3835562351379744 -0.7052820335735766
-21.827415126220593 14.716973555468433 4.394685878511159
13.473954861276919 9.439735684484186 -2.534027491844675
-3.7851696223332265 -2.383556235182454 0.7474330621269583
23.365582399463733 14.71697355544934 -4.61672002508599
-14.833493649530961 9.439735684553954 2.730017690823719
0.012863843388423 -0.15674526384862084 -0.0018211398827553914
3.082417542689504 -1.9757487252618084 -0.6328476724667013
-15.333889584711395 5.323597972264153 3.135686681038909
11.582023359243781 4.780271173382683 -2.323002810315141
-3.2704647054070954 -1.9757487251774817 0.6600212802255029
16.221927121039645 5.323597972251028 -3.263673556891178
-12.263020031813472 4.7802711732947465 2.4208580129435244
0.024934785779690265 0.8253425984592017 -0.003606328230055749
1.1850016055027097 0.3228450060318145 -0.24274261997780544
-15.258530672960003 4.952291653824645 3.1709204793331023
12.918616200707907 9.439742645907529 -2.652286066199111
-1.2383593483136037 0.3228450059625294 0.2504008582502671
15.964915241705112 4.952291653869702 -3.2726838411989205
-13.386587980410882 9.439742645958471 2.7192786595164833
-0.016769515253033364 -2.037301606966034 0.0024487242746292267
0.14589381111863808 -1.9503446922922583 -0.03311908052851312
-14.888249932086856 2.0344089846779445 3.1368724665910976
14.47955045892546 7.87986542440935 -3.0349184694552003
-0.20106706478859437 -1.9503446929005008 0.041122373349544286
15.359093623835825 2.0344089853124347 -3.2046178332297637
-14.83335861046398 7.87986542416053 3.0854891088643583
0.07034236092377345 5.2630046330977365 -0.010209019808446351
-0.30121511469491463 6.394114415673459 0.07004239117221121
-15.482847567579062 14.15780986084138 3.3034107799302883
12.199006944161264 24.669822140767693 -2.5666911044942133
0.45431950837265356 6.3941144156871905 -0.09228868749016089
16.115286371393104 14.157809860871177 -3.3948212335772263
-11.958270745117222 24.66982214074594 2.5311531060560437
0.039829907974657235 3.54787163591769 -0.0057887282531522396
0.5268040267799949 -1.0389039290518367 -0.11444723921529344
-20.187744070179345 47.77058927338532 4.352057819562765
31.025401820805342 -77.32977051251073 -6.700301545581835
-0.5727186168535656 -1.0389039301620961 0.12108834103630474
21.52670346997501 47.770589274837775 -4.546264435122999
-33.22466739674679 -77.32977051311424 7.0192672665849525
65.22274475326999 79.80356856955524 6.915245816164127
199.7799469701485 -14.824352966471691 -38.85533683261364
-147.88909506621198 82.53471994130042 34.81806602057224
-1153.2574661960798 1172.1202840412077 198.53968644109062
912.8132409059355 -742.8940896581128 -145.22903883848824
-145.42575136233492 7.255231035333607 25.435081872219133
-175.7094712570613 205.67582154770892 37.88507381588271
711.7118776129927 -667.8154482799815 -109.31584477327485
-1480.1793216384517 1392.2073002043305 227.23095187172072
438.5239120661604 110.20269805491264 -54.90987491545068
729.3682053141525 -620.7774445368184 -131.6933980189692
-577.66591996604 509.01595497317834 88.62909750049
148.25136561585506 -680.6448736495153 -30.16054676780666
-108.50306420621673 -254.7875243192482 3.2267104727840703
-738.2081274455312 535.6020542845688 125.29610995231049
56.5898667902018 -80.9950574519006 -20.50186684498831
98.61141474549373 -128.93055956281597 -7.914884044635451
669.3009057147586 -422.2803262997166 -123.67517653763899
2094.7945079694296 -1926.0194237881828 -355.766903868283
-239.8741683504366 -14.824352966389354 44.46199432787502
137.70166831677432 82.5347199416334 -33.35752801342665
1156.330364735361 1172.120284042022 -198.96927280878322
214.39973858719586 7.255231035364472 -35.414844919458105
140.86959327296998 205.6758215476554 -32.92064486665909
-703.9483878393007 -667.8154482802134 108.05229143670886
-309.1710169983746 110.20269805474601 34.69749012619668
-771.5462523670006 -620.7774445367824 137.17663654242608
591.4249992008816 509.0159549732862 -90.36723095692018
616.683381892084 -254.78752431911073 -72.31424085767271
623.474743782741 535.6020542845051 -108.65806414446716
-120.34378889869944 -128.93055956334499 10.984005893747378
-670.1790556725188 -422.28032630020454 123.81023508297149
-2094.1932877348377 -1926.0194237893268 355.6734024224324
-119.13984744569203 98.70322229244937 20.014965345415863
-189.97270265036468 123.76791303214551 26.58758829626811
-467.6347104035441 309.03262144633345 79.13478530717353
-921.6930812187715 806.4890617230291 153.6461931208848
162.12157498260842 123.76791303267017 -22.62320612875231
468.34022428004664 309.032621446708 -79.22390223146175
922.1149674411178 806.4890617234662 -153.71181049086692
-13.708630117986129 14.092309854302922 1.863328247219776
-28.279974618065374 13.337096024542152 4.319743959422398
-60.22066890808597 45.06422826006094 9.5317785058477
-40.92806088021672 31.196002948904106 6.490341765674824
15.149932519991399 13.337096024427803 -2.422933341033073
62.580801090540206 45.0642282599898 -9.861673050050067
40.664458914909865 31.196002948969415 -6.458196625667105
-1.2552582243192478 1.7096846851673606 0.2138036715879816
3.6504688374084924 -4.704632139657615 -0.6048985654915152
-18.199551019592818 14.998935623122362 3.0268189082882797
-13.679973379928526 13.834060385836361 2.271591054676156
-3.8310000213441096 -4.704632139680475 0.6441614760597083
20.828932326956465 14.998935623118633 -3.4011526620145345
12.494264871091387 13.834060385737072 -2.1088666756818184
0.2416411229887125 1.0358401956786314 -0.03472701084885682
4.331231609552224 -3.6483897899257056 -0.6890191249342581
-13.679567446126875 10.324706947502373 2.2026711997627118
3.9282273545556663 1.8414488438933572 -0.6551286973580811
-4.10278889273083 -3.6483897899086797 0.6564455898543426
14.999896785384509 10.324706947487066 -2.3900739851750727
-4.992627681070505 1.8414488439312449 0.7988414871188666
0.01323990875946797 0.39785094408718175 -0.0018670140484273944
1.879086130754699 -1.0970658078818845 -0.3007141657656636
-11.799368333667102 6.569962676391162 1.8862954541713777
6.652943465193751 0.7180042772790131 -1.0758349021919502
-2.0098368754043086 -1.097065807888137 0.3189873623861513
12.454014316629863 6.569962676382387 -1.9776182803198425
-7.0985996511034894 0.718004277299772 1.1328258939053397
0.004875093500880387 0.00012930371211758944 -0.0006172660219176862
1.725978749684393 -0.8659850440493413 -0.2749943704737781
-8.5509011200782 2.967393389916607 1.3632928344251187
6.321403337573933 0.18256710085087355 -1.0108640123125516
-1.8062461533211864 -0.8659850440368511 0.28621401963050386
8.906854176501989 2.967393389915018 -1.4118771038974838
-6.5320659655614115 0.18256710082845465 1.03670113357218
0.01232876078490163 0.30921624267303544 -0.0017878587091721635
0.6666842220303596 -0.008524831789330008 -0.10624502220924853
-8.732354840828323 2.6035728301995973 1.3880994819314445
7.332793056313881 1.7445222260343358 -1.167747883348161
-0.6821669276638922 -0.008524831815719537 0.10808428278849984
9.020627465861262 2.603572830224971 -1.4275239447400392
-7.419878167670869 1.744522226045338 1.1749687422821422
-0.01569476869057904 -0.5992764004770696 0.002537972481755631
0.08495423097574929 -0.6149577318577059 -0.013468509642251556
-8.713734940958016 1.4145938311551733 1.3814120881186727
8.45891487520856 1.4939915335641316 -1.3421237722312227
-0.12322811723109856 -0.6149577320944446 0.01939232345144992
8.893860638759225 1.4145938314160733 -1.405430877788818
-8.516632718240261 1.4939915334485823 1.34600835159632
0.050538014034561846 1.640643147346073 -0.007866386642064394
-0.16950283735754607 1.9625917884542745 0.026780387153787014
-9.165298660242273 4.9092736386753435 1.450216772530823
7.258543282198979 6.981275390948703 -1.1493673021131938
0.28572126571065565 1.9625917886090285 -0.045034001307836025
9.5203753060233 4.909273638475311 -1.502947873640135
-6.9413748441099345 6.98127539105521 1.096194589440612
0.02918177145989908 1.103643366215925 -0.004570566557625899
0.31514306913823326 -0.33881616729529357 -0.04982369890584448
-11.981790128853278 15.115509740646877 1.8936050891505463
18.432663365207077 -24.430224466918542 -2.9128140221035084
-0.34463625981214446 -0.3388161679500411 0.05430340688261235
12.901421891780169 15.115509741453073 -2.0357614692902386
-19.949477827633444 -24.430224467253808 3.1473432826692913
-8.40127390798493 285.2348014384881 -12.263733264485014
64.50458478518041 403.9116220939877 -9.631069100073042
102.76760623060251 408.21919818181055 -13.592661048377488
-343.75039369478594 140.59770183733602 22.053299850517497
77.32481955991327 24.64205839647266 2.981648527290028
-65.00428692296789 -140.2562875451541 14.500417673689551
-199.5180706946427 33.42100399556143 43.176283983476964
578.1240960067788 -89.37467599895687 -55.69494585879138
-73.05256636256408 -80.57602460959284 0.17904086020157547
216.70102694438967 65.193210977121 -34.217543040986065
525.5283936264327 -274.4388210870599 -85.02260963571142
-242.09565265716287 25.880870864009683 21.399561237564228
-83.7553174263758 37.43853750892444 16.8326046902236
-99.36945769560694 -77.82293534144242 14.448849175564888
-468.57210440978275 200.44574556810593 67.2721825648202
34.07418858468367 -349.27743152831977 2.118937388249994
-13.594362390029046 -401.6013793315015 -1.8558470758751553
-14.866484400887616 -472.5491604391875 -8.004113454837295
114.15519259087849 -150.89748676866787 1.8924498646930923
-70.82803699813955 403.9116220939793 10.475525387389032
-104.233570586798 408.2191981818417 13.848607096326562
344.3269492363094 140.5977018374065 -22.149559045965663
71.84745972363568 -140.25628754514554 -15.93359168731261
194.28692886214276 33.421003995569365 -42.3219086696717
-578.9690559919499 -89.37467599897117 55.86386862329398
-221.6673854983727 65.19321097711108 35.345890972204984
-538.6703691025428 -274.43882108708885 87.22354570682297
247.02622901187965 25.880870864013787 -22.230685647547435
221.28054811758892 -77.82293534143452 -33.89483026525461
454.8400870756432 200.4457455681203 -65.24065139852891
10.852171343272147 -401.6013793315253 2.32970981179166
14.816307637029038 -472.54916043923095 8.017836831814915
-114.16072213441578 -150.897486768777 -1.8911013669816235
-24.618149066894507 103.47572947058829 2.620419005792454
-31.524324905149196 109.98233805777724 6.053984162124198
-49.45136312418795 144.88687248951996 10.448522087074862
-36.645905232406704 52.04976124466421 0.6019519745350491
27.66989033777051 109.98233805781403 -5.384845907536138
49.61931839367371 144.8868724895421 -10.468826260211955
36.648828910692316 52.04976124471384 -0.6033601776527602
-1.8004921156073235 0.45226541979226315 0.3953824541504124
-5.9379939856352 0.003679122877736711 0.9754327638446768
-7.886103323208981 0.936516198364596 1.0652791729742777
-4.085463385779122 2.4293656120766123 0.7313089449170289
4.05621584355078 0.0036791228646279026 -0.6411291045990142
8.262201300124445 0.9365161983664856 -1.1240984590131802
3.985991026608223 2.429365612088966 -0.7158052180240491
-0.2565617572680936 1.8518314717201736 0.03014431948475203
0.34641306163944685 1.7612074262046622 0.028040460315800642
-0.7775465767843439 2.470640862218709 0.08947381071604206
-1.3677086872588136 1.580395719470137 0.18713044109102833
-0.3999055281744781 1.7612074262040363 -0.018003337379889527
1.1786046936106387 2.4706408622165377 -0.15586086137253174
1.1135479274268667 1.580395719450308 -0.1455889281993766
0.03681661498637304 0.011600463841988028 -0.005630780586448113
0.5167116350577229 -0.17030818301118897 -0.05195406628784319
-1.4753646656307928 0.38833021989362865 0.107305160676733
-0.49774539010428803 0.49623488965065843 0.1189867889019656
-0.4889058234389029 -0.17030818300892736 0.04670256747390038
1.6947922924523628 0.3883302198895155 -0.1428781394200703
0.23106463155691645 0.49623488965988605 -0.07454694804652529
0.002474997122358944 0.015075250927593358 -0.00042520399270243146
0.2701818379886876 -0.047820428650052225 -0.0252073090746119
-1.7033319579742823 0.2695896622183164 0.15924751186736286
0.5483870544247521 0.2929146504040537 -0.023950627909002972
-0.294191213183741 -0.04782042865063695 0.029067091393220834
1.8294538373300988 0.2695896622203427 -0.1795106922008403
-0.7015616908524742 0.2929146504044094 0.04972796397464268
0.0016888450667445524 -0.004819294797151265 -0.00028185840899113746
0.29275409093125604 -0.04159437341253691 -0.029646571238132018
-1.423159079427752 0.10111245156361034 0.14264447898778204
0.9447207070373411 0.14481883612860477 -0.08845547380371067
-0.3080161859924663 -0.04159437341080541 0.03209053566433389
1.5054125865736754 0.10111245156142637 -0.15607389142198594
-1.0311294415654333 0.14481883612305255 0.10306620555491466
0.0015034538261473344 0.020726773017438686 -0.0002256561113717524
0.11243911134256938 0.01126839514467622 -0.011343197733541152
-1.617121473321971 0.10987227219445518 0.17005113061527038
1.2758995227021845 0.25500518357219687 -0.13011837969935258
-0.11954070612988835 0.011268395135642158 0.012551722120049848
1.6827568561212485 0.10987227220272089 -0.18072304863010835
-1.356382244306717 0.25500518357790036 0.144069900824726
0.0014898779597505845 -0.05518042910645073 -0.0003160513066601428
0.02321360262069292 -0.052937662173425507 -0.0026880892320970103
-1.7496968442710321 0.04698393830608904 0.19011273998085582
1.6540359844113715 0.2045216419264627 -0.1777534195133751
-0.023011933455552663 -0.0529376622068668 0.002523952073127442
1.7986582082457583 0.04698393835150665 -0.19817470936900783
-1.7190326510170038 0.2045216418991965 0.1890440705154965
-0.0008426226007359152 0.1435545875632966 0.00031883642831826185
-0.053184138723438704 0.17383089738020976 0.0063508269229442995
-1.967330523228356 0.3808259702817121 0.2186732176046837
1.450541783585552 0.6579231921910836 -0.15806364951692994
0.04912649085664042 0.17383089750128974 -0.005243489559052062
1.994224703053084 0.3808259701820184 -0.2222391197686749
-1.5050440574565132 0.6579231922235694 0.1687493022750889
-0.0008549273890127692 0.09143552601426244 0.00024660656551275453
0.07274609356497606 -0.03228510179476018 -0.008234199690430431
-2.711116247519853 1.281330887172571 0.3059888250931336
4.202322751230794 -2.0946667890735813 -0.47514802761526115
-0.07369225958720674 -0.03228510192303114 0.00829839439084271
2.708529611306003 1.281330887299548 -0.3024609162072697
-4.19728644884555 -2.094666789117943 0.46917228647147696
-17.406760076001166 130.33290958425195 -1.5467669769794403
58.62199653201594 213.36364793850194 0.35131390724553474
-12.346815477089022 52.73027749934346 -2.9874188388512923
-118.05185752949318 43.57990054865846 -0.7823010218492962
8.985288310605041 -3.2517608560642404 0.1363021097882604
24.96821833465654 -7.050661923916425 0.16214049906756683
-77.17868722055911 95.37814228390421 0.07217013769365718
55.71645064099134 132.87574051948005 3.1840344220093475
4.913687268733212 4.793570952381928 1.0204069846936914
-82.87174480032309 -63.34296362600324 0.2178100561005452
48.29028903078381 -140.53061376279612 2.8301481922019565
-22.12466003629753 -92.71557583382454 -1.4442696493689617
-2.247233061347639 1.1519343931471984 -0.09773549868843852
40.43097867796911 22.001891528798854 -0.29531996282444195
8.902173463141144 74.70978667892115 -1.7452577711637094
8.808778548218656 -192.92826074231013 1.014114647520245
-59.9055692234377 -254.6952144555102 -1.2738062317934946
63.68794966304193 -120.44519104550251 1.7870613349334752
106.80238269115759 -143.63786277758675 -2.1028901524350645
-58.56134621641342 213.36364793849324 -0.3121027991076979
12.466417030554862 52.73027749929736 2.998940428949892
118.02668591823674 43.579900548663076 0.7790582955319161
-26.192019606460022 -7.050661923919506 -0.2593007542798218
77.49332200000494 95.37814228393653 -0.03465848998270377
-55.84225194093676 132.87574051947584 -3.1931313785609103
80.97136043030805 -63.342963625994955 -0.37489029151391345
-48.16858285978133 -140.5306137628238 -2.789621599342173
22.105465730635306 -92.71557583382081 1.43135052186434
-42.13764657734453 22.00189152879599 -0.1742366169839239
-7.991348957826187 74.70978667892906 1.8627164546858737
60.150971502613764 -254.69521445548745 1.3022641801596262
-63.66732710611102 -120.44519104542718 -1.7859824518851295
-106.81200517901706 -143.63786277758427 2.1021819004363147
-0.5347853962506309 66.70874036034046 -0.11689311360999442
16.069112567737918 78.96804158737514 0.6415938443294953
-23.444126138209 43.000182626435645 -0.11791563253904551
-26.642473609609617 53.69165898236883 1.1169375592506126
-15.750722329032326 78.96804158735229 -0.6081229790386669
23.45237470685357 43.00018262637722 0.11718338128284699
26.63417072704814 53.691658982358526 -1.117452219431688
0.2590987100281682 2.0261764739957338 0.024803887849647606
-0.7793179797722268 1.1716310451024459 0.04095122160189292
-0.23080033332742747 1.8450586078918265 0.09235503623230228
0.5517150797080773 1.1591174198410032 0.0539686394077895
0.9447808383150161 1.171631045115473 -0.026555447410450805
0.2152570293882185 1.8450586079140177 -0.09500370828741202
-0.5535229504418449 1.1591174198521188 -0.05373911286152134
-0.0006563000601557292 1.190581436332162 -0.00124087658298717
0.0393200130959949 1.2749237976850307 0.005342609609814628
-0.3483028415051591 0.792096227119259 0.0069710393622450795
-0.38250141875560734 1.038294114524691 0.017847149836428346
-0.03395602030787517 1.2749237976783918 -0.005909163898677504
0.3235712278248359 0.7920962271127306 -0.009824659278579267
0.38941366355928847 1.038294114513019 -0.0166320274103736
-0.0016773582246986996 -0.06799246885069897 -0.0002267153265866694
-0.006846191102106109 -0.012320817766311927 -0.0014827024166971488
0.0450489167318449 -0.3027846717065923 -0.001936976510755565
0.033929915794704904 0.21315335312524195 0.002051364381332345
0.003543421781914061 -0.012320817765603282 0.001176104447340568
-0.05572894786819517 -0.3027846717074414 0.0005943761575313282
-0.028280985197984998 0.2131533531322378 -0.0009965840283190888
-0.0001291562686209977 -0.009537119733496364 -1.370100780703842e-05
-0.007368298766485525 0.03368054963632132 0.00030367289350190035
0.049614620681127146 -0.20550783260883246 -0.0017868366595663163
-0.004890124571072483 0.14138088734439366 0.0016661905917612272
0.008240327810723267 0.03368054963521297 -0.0001690870252644723
-0.05370767968267491 -0.2055078326069336 0.00113497316558319
0.005763508708925577 0.1413808873426098 -0.0012535742942256479
-4.576395092991518e-06 -0.002713644008726736 -4.664419584422972e-06
-0.009151413975913696 0.027327177443715198 0.00033228039988579246
0.043250562793872314 -0.12118763662118832 -0.0016909970231356627
-0.026341570435199947 0.08281683337118133 0.0013386824737252423
0.00965383540314121 0.02732717744534619 -0.0002527978443924228
-0.04505065975628074 -0.12118763662152364 0.0013428793532145333
0.02625551930374393 0.08281683336795492 -0.0011516079370820697
-0.00010094734369463195 -0.00758136548537789 -1.259976395124748e-05
-0.003524212162293436 0.006825809077724225 0.000130334143588423
0.052672095895424056 -0.10236206666974938 -0.001877095542302183
-0.040894535477804625 0.052752368402150474 0.0015585663001791501
0.0034976297299180335 0.006825809077255185 -0.00011679472338073423
-0.05411556477574403 -0.10236206667214205 0.0015960924259078376
0.0395025050140635 0.05275236840835724 -0.0015034476182794227
0.0002289924882084656 0.006140856419495907 1.7713859779938364e-05
-0.0006138125519118922 0.009084800325005589 4.6107894259005975e-05
0.06043155541087382 -0.06883973119893393 -0.001969817782181195
-0.05734255264486138 0.040650862339413604 0.001868810855132275
0.0010683265430017068 0.00908480029783339 -4.602945892698526e-06
-0.06107615315102243 -0.06883973116407456 0.001798604459966537
0.05604378653710181 0.040650862320503085 -0.001838709945515969
-0.0006172463929208033 -0.023055379349484362 -5.5087838101000814e-05
0.0011593686416783893 -0.025631345673623924 -0.00011832100763851036
0.06880544459515535 -0.10013157124954578 -0.002286639104868552
-0.05435873597049722 -0.05287407006439609 0.0014020752771126813
-0.0026438486316579233 -0.02563134561801563 -9.434362939909832e-06
-0.07215637409836644 -0.10013157130462545 0.0019155611593194663
0.048973827681732404 -0.052874070041923016 -0.0017727647903714005
-0.00037127736697542703 -0.015252607205079684 -3.210691098568714e-05
-0.002540777702324065 0.005776815657886883 9.353594307235517e-05
0.09303673812534095 -0.2260000715380305 -0.0033642922079269813
-0.1441435542249422 0.36333661312384935 0.005273650864767741
0.002851893441439355 0.00577681558568483 -6.227026140852879e-05
-0.10391212117543552 -0.2260000714683494 0.002367233179586647
0.16207486249695655 0.3633366130996953 -0.003629667307183888
27.506922860486632 212.87775147550676 -1.295717924390313
100.79234032193713 355.72018886759196 -1.7981404158955396
106.01454047543504 222.47482848678598 -4.9536443337476
339.21665388564514 366.6179901441313 -20.08386129223076
-144.9066529332608 63.80605788996517 8.314692947155953
-170.87515376428365 -166.03115763011414 15.83684968799563
-110.45499611167604 -54.02222974617733 12.33337778452252
-233.92258040993647 -118.26983237128604 18.66266856795211
101.19952847149648 -125.35186865732231 -1.0191991050093594
68.81035321753365 99.46214449433838 -9.534576662928814
105.83532174419518 26.474018598189257 -11.765222418555913
193.50429632845902 35.84249351497562 -16.039141757403804
123.7463914298523 63.14547348573279 -22.018714454954377
33.320899133767035 -44.842044340755855 0.4937434203768899
-116.71673833762968 -26.885649237262477 8.547554600831344
-24.94132498962506 -296.4529767727363 5.819072190926535
-61.53301287312736 -344.8443162767862 0.010474329090505902
-85.09057120961556 -249.73201167255695 2.5574701142070033
-447.22767719036284 -389.2514871844527 28.75660528801917
-90.60029120615413 355.7201888676236 0.6781742765071305
-104.48997314187285 222.47482848673476 4.720248665247385
-339.9328709883392 366.6179901442147 20.187904382295493
166.649281725907 -166.03115763012372 -15.016450369409485
116.69876531053512 -54.02222974613345 -13.197765449514069
235.57067312397598 -118.26983237131786 -18.959255140243496
-55.47241231768215 99.4621444943447 6.828287087408081
-87.5208353602379 26.47401859813672 9.054790320711195
-200.47173010451317 35.84249351498311 17.080253020453856
-203.31584577635073 -44.84204434076226 23.357417969178062
133.4663610483944 -26.88564923723584 -10.567263539713132
64.79584090711487 -344.8443162768218 -0.4322077431314309
85.03031711618002 -249.73201167247873 -2.557438745498389
447.2775616761946 -389.2514871845374 -28.76524874372741
20.690249492386187 92.06192878188332 -4.062723474164659
28.663536498356766 93.41134457704214 -2.1680290029192593
42.613832842624554 72.32262334165976 -3.06034190534293
164.53443558172307 111.3962944851231 -11.791574953351045
-24.399697874760694 93.4113445770549 1.5577475517927097
-42.96329562831543 72.32262334160559 3.0957738829582113
-164.4943182043969 111.39629448513767 11.786850789512476
1.8095764793223932 0.8321458561986814 -0.28370239733725744
1.8057611759177614 -0.16471025695079244 -0.392958225852317
6.700314811538588 0.9759200040367447 -0.692613732369503
2.670879760960582 -1.1276583745647362 -0.35124356921803357
-0.011339668417925892 -0.16471025695305028 0.09804847641441021
-7.220081623657226 0.9759200040614985 0.7580015494703138
-2.511011975912585 -1.1276583745354087 0.3296842895806338
0.1633903751734784 1.6902375785783443 -0.041000306791523375
-0.8945436304214063 1.522746941480987 0.07980640052718563
3.1819406282672653 1.7250871684864786 -0.22627980638671163
1.3417343939400086 1.3458988273408323 -0.10639717626494656
0.8440193765276567 1.522746941480148 -0.08710094901757277
-3.653547740248738 1.7250871684729079 0.2928693358356595
-1.0006715852636776 1.3458988273135755 0.058200556274794715
-0.045593997523617896 0.008733459670515952 0.006117778570451239
-0.7959418984487843 -0.11179616627289775 0.0706913388697256
2.973050707933024 0.23457814112951092 -0.23932891163353562
-1.5234451792249606 -0.33962462475651767 0.1010743316929752
0.7694389776486744 -0.11179616627176202 -0.0666351905226569
-3.240918384569064 0.23457814112860614 0.2771377952382073
1.880442608872798 -0.3396246247448122 -0.1535236879323085
-0.002838034478826405 0.006306399703813975 0.00044057713514222195
-0.3686200816704069 -0.03133272805020419 0.030877795247882714
2.310063870094804 0.17074826221688957 -0.194571845791679
-1.5417671490459253 -0.26190975606519024 0.11786708034889672
0.40007999425100577 -0.031332728050783965 -0.03521230782975497
-2.4755592127805004 0.1707482622194177 0.21766736051308677
1.7560099638376698 -0.26190975606784284 -0.14995632839898465
-0.002426152320040209 0.006308250544332777 0.000355813467177231
-0.31556789534862506 -0.018417831703430962 0.027265080822459632
1.5704707178524488 0.11603767378497092 -0.13455659805686546
-1.2039646584848638 -0.15362690180018262 0.09962933535895944
0.3355512212991952 -0.0184178317008059 -0.030047038606897683
-1.6814647825201583 0.11603767378047541 0.15044784119530522
1.327228703902234 -0.15362690180057284 -0.11821966101547889
-0.0018020943037578244 0.0010543958102451202 0.00022291925596799785
-0.11906626971024467 -0.013509452852730808 0.010146909292457214
1.5184021364738824 0.085591601598384 -0.1333354040631967
-1.2800321691649177 -0.16357932902732894 0.10907906301201127
0.12926219222124247 -0.013509452858364976 -0.011696034571956228
-1.6070966426475328 0.08559160160204493 0.1459717180562481
1.3992274271854994 -0.16357932902241726 -0.12766073016509796
-0.0028697308636799904 0.014801738425735015 0.0005442822551769685
-0.01714587270043219 0.01031119056737059 0.001765159153170219
1.4387457444296896 0.06757421791792857 -0.12912829988170849
-1.3888545119469253 -0.1299644463808798 0.12264160849770647
0.015379381259075228 0.010311190516746536 -0.0012732370794817324
-1.506406204904017 0.06757421799052835 0.13896134852193356
1.4857857061416264 -0.12996444642192703 -0.13779705169637327
0.0032076587563647976 -0.030017166367108584 -0.0007897740124689475
0.040438716290416975 -0.039079874356338834 -0.004465344553840979
1.493861340489905 -0.02999196077628762 -0.13789346859789384
-1.1145336507269974 -0.1999697692070305 0.0981710052690751
-0.02982470004287565 -0.03907987421633091 0.002132998115755294
-1.5212962642893915 -0.02999196090894455 0.14033189446160851
1.209833344948242 -0.1999697691560634 -0.11511033451846096
0.0024390552564212903 -0.017310488976141916 -0.0005461261717394635
-0.05124472247282218 0.006801229993433539 0.004864996145811124
1.9864667209037903 -0.23798927048271265 -0.18859048729878228
-3.056271199892328 0.4009845902336319 0.29100317475059834
0.05160288719372671 0.006801229863136074 -0.004754763663755262
-1.947329954308044 -0.23798927036072198 0.17731877996202908
2.9907483914250665 0.4009845901922685 -0.27222784002734635
415.3940331171876 625.670808450457 -57.24574762290205
1604.4723048822304 2178.5316931850994 -147.217351502197
1449.6531248288777 1509.15768113323 -77.12722984929562
2826.0834637965804 2315.4057008415252 -44.02542287036001
-904.6355421815464 -769.9807078172473 111.59194371434975
-388.32577507014355 -632.5775016717025 33.61932292354201
-602.879680046168 -349.19418022838784 41.47615803107035
-1254.9748531084051 -901.8647427842767 12.018067787168015
604.2449371605526 760.9683278920726 -65.29952694596317
-1057.3437088742082 -453.07090653115415 107.51028547670528
439.4613111012082 115.62007739705024 -47.742691923921
524.6910881775291 254.49265423378844 0.5814792314439554
556.0592875130916 -788.5070367097014 -85.75203902409915
1076.9791373128064 846.1998465059285 -107.89575510473998
-294.7147059406223 -176.97055017890665 38.228295509603235
-325.122970045214 -473.0144597442907 50.1955455861382
-1896.7133348543648 -2429.7488169659982 181.671069209995
-1866.0549770109908 -1963.0165124468508 100.94497035340355
-3227.5458550983985 -2533.6124753884064 58.29190930654724
-1555.9540194084286 2178.531693185348 140.8143476942776
-1442.5846951807055 1509.1576811332088 76.12085821703015
-2829.4462473394788 2315.4057008423233 44.50148796335024
372.4091028595295 -632.5775016717165 -31.247455566477953
632.2078260892496 -349.1941802281707 -45.550255405111486
1262.6056101955846 -901.8647427845776 -13.21295140691149
1120.397541724079 -453.07090653121907 -117.95368496172578
-353.3591369324368 115.62007739676136 35.39006520518585
-557.4196719845191 254.49265423388945 4.133119974932076
-1884.5154869645316 846.1998465059643 221.73327364004768
374.96964547900006 -176.970550178782 -48.936035123421206
1911.11003460194 -2429.748816966548 -183.61437593687245
1865.7595985791995 -1963.0165124468454 -100.91166013344214
3227.7794793419625 -2533.612475389299 -58.32899270267222
144.6944752243772 188.12552878239813 -22.063343296657553
693.4578686817525 809.4698212591788 -68.35316659390614
730.3851111198361 712.0108776458134 -41.23000586180351
1073.0484420591683 811.9401653396792 -22.997163867707965
-674.0616367333381 809.4698212595877 65.64801985064501
-732.019441707117 712.0108776457889 41.44308029721035
-1072.856722554013 811.9401653399082 22.96989760321682
6.576560106770904 22.406672923950556 -0.9326363025095197
22.859278661115113 13.809119120210424 -2.401383264528619
42.24842659245783 29.644336739549566 -2.246868372339777
16.738573984059528 12.333558273637886 -1.2564045142711446
-14.45460368366531 13.809119120104642 1.180562447956744
-44.663768043173874 29.64433673964927 2.574890834588315
-15.985414345641667 12.333558273817024 1.1508593059065728
1.2720102199153083 3.6866906033191245 -0.2042521152477278
6.645817099375132 8.135024413030559 -0.9121887537980022
17.258783083685604 14.083601028784607 -0.46893760637830595
16.277442032949796 15.11692211464469 -0.599084678664188
-6.733179929934979 8.13502441302967 0.9053690596517606
-19.469119572689017 14.083601028703546 0.7776778828179896
-14.67351243268416 15.116922114465027 0.37306079873763637
-0.22058893371660893 -0.5911964637776145 0.030470403028992
-2.414899869695103 -1.508715859484942 0.05089067840258787
5.657135671855255 1.1621998032493186 0.17757597848882395
-0.38138484366182696 4.255983748932824 -0.3042735501295447
2.301285608716759 -1.5087158594702361 -0.03489459273877789
-6.928154999363883 1.162199803236713 0.0005140906956383478
2.0623968092133778 4.255983749012958 0.06424953117353172
-0.013387180046576179 0.09093782676196709 0.0019303097999881513
-0.8399913403656233 -0.07962109266874544 -0.009045315934781603
5.220855577240618 0.5368811835668614 0.05462138925536635
-2.2440208545607137 2.997852941750997 -0.16219589236969711
0.9883699326703889 -0.0796210926777251 -0.011662387185117988
-6.004835909481479 0.5368811835854344 0.05529406210098449
3.2524255290326223 2.99785294173947 0.016886797799086625
-0.011385266739777841 -0.05850145787534558 0.0016308916467248427
-0.7856116537670454 -0.0906688469206157 -0.001690894507769807
3.8315273131319665 -0.2142222982909085 0.01849974301886479
-2.6136085846324506 1.6518990714904505 -0.05044615576071618
0.8804010357548623 -0.09066884690236891 -0.011587340820133952
-4.355975561148656 -0.21422229833016518 0.055772979764026134
3.1933330181837656 1.6518990714869395 -0.033380532213426024
-0.008636601108598796 0.08010754172716493 0.0011598371499453408
-0.2931841810575702 0.1278115348609402 -0.0017520866242483532
4.041375745260477 -0.07597334253903207 -0.012707304632627418
-3.1821194270526485 2.224828369610701 -0.020213635168148083
0.3410757083501356 0.12781153480479998 -0.005193051288691635
-4.46078629592161 -0.07597334248415191 0.07201344492164768
3.7409513885173893 2.2248283696344173 -0.06169997990677898
-0.01315602532164496 -0.32100235730866317 0.0021040837688917663
-0.055884481230559724 -0.27762863849232805 0.0018229032330528301
4.142038411255927 -0.280111508231435 -0.04070778739093393
-3.8877409997272254 1.8233833921381706 0.0213322217804537
0.04827047399886257 -0.27762863889485795 -0.000314820147511244
-4.461437831591238 -0.28011150768801024 0.08623115787026274
4.342117175395318 1.8233833918505105 -0.08802855065204804
0.014146619289574421 0.7639879502006275 -0.0025979825001643878
0.1388278232181592 0.9496304508017422 -0.006654318453058491
4.566615457858138 1.6871074853810495 -0.07574231008344313
-3.275669553864037 4.074351207840931 0.02396591408569007
-0.09114822995813744 0.9496304517215703 -0.0015618592287657467
-4.700896692541695 1.6871074844802005 0.09209921250057504
3.716148253934777 4.074351208188493 -0.0923185594540669
0.010935758517139878 0.5087014696330743 -0.0019050319324269492
-0.16486085218825186 -0.1458023336333118 0.0035133898336015598
6.309085344993678 6.738581146198586 -0.14157215595849684
-9.755031437848809 -10.96656150479769 0.22362012788487018
0.1670686004943112 -0.14580233460365727 -0.003539300459445182
-6.141434225325967 6.738581147198927 0.10762776818250179
9.474143900932265 -10.96656150516252 -0.16694775795588773
1497.820638018565 3644.9617588226333 -201.23841841465054
3967.88212288763 7068.778464431186 -285.096499914223
1749.9264919581228 3656.758061660683 13.140915944087254
3323.790734483959 3629.7444877023554 87.58798260918658
-20.121242491673904 -33.45206664260938 -13.85031107517358
-1350.5243809080744 -1463.1677651674925 143.34698151189622
-971.1416231725059 -1671.7724351263673 3.632729953491936
-1019.3550049261495 -2175.715683794802 -144.22816313646715
-1534.991315621909 -2931.6922994861197 240.32304660759
-46.72643315161735 -266.84070960755304 -56.1260850237245
886.7144746539809 1075.1513209899908 -77.94715950923626
284.42147254573825 1381.1019461207266 150.23110300565628
2563.5207273143483 2232.769748802417 -384.6873837198723
-28.383449572243567 597.5333841666336 77.30548762011996
-140.17182646584249 -735.8468941728094 36.03985262745221
-2150.3576966004225 -5300.322472790718 302.893120056057
-4637.874872901703 -9049.445397346544 294.9797825072248
-2548.661440750404 -4735.753615122931 -7.916365968806425
-4289.56147033968 -5034.782112015214 -163.65691819246817
-3922.7231910493647 7068.778464431495 278.37997069689266
-1729.2097822606913 3656.7580616615287 -16.20520446408645
-3332.8267561320654 3629.7444877047187 -86.24698669062755
1283.1924004152193 -1463.1677651672678 -133.29485291765496
1037.5797208916397 -1671.7724351261847 -13.4634128477007
1057.1131804431002 -2175.715683795645 138.56145097826243
451.5484221206148 -266.8407096081463 -4.601424991120592
-633.8594013638135 1075.1513209896327 40.28340014996405
-383.44789339165754 1381.101946121066 -135.47185235334902
-2021.239034318743 597.5333841670605 227.19959190647444
249.6371060068806 -735.8468941727543 -52.0365116171522
4658.645201070599 -9049.445397348109 -298.1083730599728
2549.685987719715 -4735.753615124223 7.7694002585985835
4290.728080636606 -5034.7821120181925 163.48047984063209
806.5640848760324 2164.570903911601 -115.732308594975
1601.7236347800579 3276.818571823576 -94.53265032225066
1083.5591556325935 1961.9065495397883 10.70310968909962
1522.029435045135 2020.9235087800073 75.41315411875826
-1556.3416191154113 3276.8185718249956 87.7886034778525
-1084.3617167927728 1961.9065495405891 -10.577975168875412
-1521.6285552069603 2020.923508781086 -75.47506119984868
14.63141049800972 136.89473773556577 -2.292151904483555
42.583983769057376 91.60882380169497 -2.5806648989416225
77.36413186464561 142.1324724123224 3.337185287677593
37.79866427769404 87.1759674686724 2.704785605519619
-12.99857662016598 91.60882380143832 -1.7837026520204429
-81.25447383558947 142.13247241235112 -2.75701798453475
-36.071268326758 87.17596746885604 -2.9629688423178067
9.278374537220426 37.11762958935586 -1.3330155496047973
19.6720216819325 29.392652607951 -2.3897931955127025
24.491004930935716 49.14747317192611 2.489020906641999
25.88151946377335 40.483621368634566 0.18543273195316273
-15.892304940737104 29.39265260784875 1.8442347476876952
-29.79835525345473 49.14747317181849 -1.7033734125428583
-21.825808251073916 40.48362136831832 -0.7884909514382052
-0.4803233267066258 -1.317667906944815 0.07065326981766064
-3.1668232116644695 -9.674785700184376 -0.5564369223303421
4.773535184441036 15.842807493604482 2.807329870229552
2.687259780875332 13.80136738722491 -1.7085920679790934
2.87669028734979 -9.67478570012066 0.5998180848789151
-7.9231404651218265 15.842807493547268 -2.34151462314053
2.10481590238412 13.8013673873863 0.9958977307905384
-0.04286948174249504 0.720969493513838 0.0063487576778816805
-0.8503219941726138 -1.5887619488425435 -0.3416411212273141
5.248069765049993 9.779752545838496 2.12166645864177
-0.7783613465920232 9.806720506537324 -1.6164274364858089
1.1946208586831222 -1.5887619488675047 0.2905459339307474
-7.160559665392517 9.779752545872652 -1.838012875422077
3.8489932184367386 9.80672050654585 1.1590496440038092
-0.03274582429222669 -0.17427983378940082 0.00488312574231026
